svm_type c_svc
kernel_type rbf
gamma 0.0078125
nr_class 8
total_sv 2150
rho 0.304734 0.664608 0.997272 0.678714 -0.0584806 0.883144 0.153619 1.0431 0.239322 1.13657 0.785952 0.893335 1.02247 0.0976132 -0.87059 -0.154355 0.557091 -0.761765 -0.225001 -0.0485907 0.418963 -0.114283 -0.1204 0.633693 -0.816462 0.0851481 -0.710374 -0.489792
label 3 0 5 7 4 1 2 6
nr_sv 195 234 309 287 282 277 316 250
SV
1 1 1 1 1 1 1 10:-0.372263 128:-0.450425 
1 1 1 1 1 1 1 10:-0.0510949 128:-0.444759 
1 1 1 1 1 1 1 10:-0.50365 128:-0.643059 
1 1 1 1 1 1 1 10:-0.737226 128:-0.739377 
1 1 1 1 1 1 1 10:-0.19708 128:-0.512748 
1 1 1 1 1 1 1 10:-0.430657 128:-0.620397 
1 1 1 1 1 1 1 10:-0.883212 128:-0.750708 
1 1 1 1 1 1 1 10:-0.89781 128:-0.903683 
1 1 1 1 1 1 1 10:-0.810219 128:-0.903683 
1 1 1 1 1 1 1 10:-0.868613 128:-0.875354 
1 1 1 1 1 1 1 10:-0.19708 128:-0.603399 
1 1 1 1 1 1 1 10:-0.328467 128:-0.308782 
1 1 1 1 1 1 1 10:-0.868613 128:-0.84136 
1 1 1 1 1 1 1 10:-0.854015 128:-0.954674 
1 1 1 1 1 1 1 10:-0.678832 128:-0.733711 
1 1 1 1 1 1 1 10:-0.459854 128:-0.72238 
1 1 1 1 1 1 1 10:-0.781022 128:-0.830028 
1 1 1 1 1 1 1 10:-0.751825 128:-0.807365 
1 1 1 1 1 1 1 10:-0.649635 128:-0.813031 
1 1 1 1 1 1 1 10:-0.824818 128:-0.88102 
1 1 1 1 0 1 1 10:-0.912409 128:-0.988669 
1 1 1 1 1 1 1 10:-0.678832 128:-0.790368 
1 1 1 1 1 1 1 10:-0.737226 128:-0.784703 
1 1 1 1 1 1 1 10:-0.824818 128:-0.875354 
1 1 1 1 1 1 1 10:-0.562044 128:-0.620397 
1 1 1 1 1 1 1 10:-0.89781 128:-0.852691 
1 1 1 1 1 1 1 10:-0.839416 128:-0.8017 
1 1 1 1 1 1 1 10:-0.839416 128:-0.864023 
1 1 1 1 1 1 1 10:-0.824818 128:-0.886686 
1 1 1 1 1 1 1 10:-0.854015 128:-0.915014 
1 1 1 1 1 1 1 10:-0.824818 128:-0.76204 
1 1 1 1 1 1 1 10:-0.810219 128:-0.875354 
1 1 1 1 1 1 1 10:-0.255474 128:-0.478754 
1 1 1 1 1 1 1 10:-0.79562 128:-0.750708 
1 1 1 1 1 1 1 10:-0.518248 128:-0.807365 
1 1 1 1 1 1 1 10:-0.459854 128:-0.456091 
1 1 1 1 1 1 1 10:-0.839416 128:-0.847025 
1 1 1 1 1 1 1 10:-0.868613 128:-0.903683 
1 1 1 1 1 1 1 10:-0.620438 128:-0.665722 
1 1 1 1 1 1 1 10:-0.766423 128:-0.926346 
1 1 1 1 1 1 1 10:-0.912409 128:-0.909348 
1 1 1 1 1 1 1 10:-0.751825 128:-0.8017 
1 1 1 1 1 1 1 10:-0.868613 128:-0.835694 
1 1 1 1 1 1 1 10:-0.941606 128:-0.886686 
1 1 1 1 1 1 1 10:-0.532847 128:-0.835694 
1 1 1 1 1 1 1 10:-0.620438 128:-0.864023 
1 1 1 1 1 1 1 10:-0.708029 128:-0.869688 
1 1 1 1 1 1 1 10:-0.912409 128:-0.818697 
1 1 1 1 1 1 1 10:-0.824818 128:-0.637394 
1 1 1 1 1 1 1 10:-0.824818 128:-0.909348 
1 1 1 1 1 1 1 10:-0.489051 128:-0.813031 
1 1 1 1 1 1 1 10:-0.357664 128:-0.558074 
1 1 1 1 1 1 1 10:-0.839416 128:-0.886686 
1 1 1 1 1 1 1 10:-0.854015 128:-0.909348 
1 1 1 1 1 1 1 10:-0.751825 128:-0.886686 
1 1 1 1 1 1 1 10:-0.970803 128:-0.847025 
1 1 1 1 1 1 1 10:-0.605839 128:-0.535411 
1 1 1 1 1 1 1 10:-0.868613 128:-0.756374 
1 1 1 1 1 1 1 10:-0.824818 128:-0.847025 
1 1 1 1 0 1 1 10:-0.970803 128:-0.909348 
1 1 1 1 1 1 1 10:-0.927007 128:-0.830028 
1 1 1 1 1 1 1 10:-0.941606 128:-0.784703 
1 1 1 1 1 1 1 10:-0.824818 128:-0.818697 
1 1 1 1 1 1 1 10:-0.810219 128:-0.813031 
1 1 1 1 1 1 1 10:-0.824818 128:-0.750708 
1 1 1 1 1 1 1 10:-0.839416 128:-0.835694 
1 1 1 1 1 1 1 10:-0.518248 128:-0.529745 
1 1 1 1 1 1 1 10:-0.693431 128:-0.852691 
1 1 1 1 1 1 1 10:-0.547445 128:-0.626062 
1 1 1 1 1 1 1 10:-0.79562 128:-0.699717 
1 1 1 1 1 1 1 10:-0.985401 128:-0.84136 
1 1 1 1 1 1 1 10:-0.883212 128:-0.875354 
1 1 1 1 1 1 1 10:-0.854015 128:-0.784703 
1 1 1 1 1 1 1 10:-0.547445 128:-0.779037 
1 1 1 1 1 1 1 10:-0.664234 128:-0.767705 
1 1 1 1 1 1 1 10:-0.649635 128:-0.830028 
1 1 1 1 1 1 1 10:-0.781022 128:-0.790368 
1 1 1 1 1 1 1 10:-0.824818 128:-0.824363 
1 1 1 1 1 1 1 10:-0.810219 128:-0.869688 
1 1 1 1 1 1 1 10:-0.737226 128:-0.818697 
1 1 1 1 1 1 1 10:-0.40146 128:-0.501416 
1 1 1 1 1 1 1 10:-0.927007 128:-0.92068 
1 1 1 1 1 1 1 10:-0.416058 128:-0.371105 
1 1 1 1 1 1 1 10:-0.766423 128:-0.869688 
1 1 1 1 1 1 1 10:-0.810219 128:-0.903683 
1 1 1 1 1 1 1 10:-0.810219 128:-0.813031 
1 1 1 1 1 1 1 10:-0.635036 128:-0.779037 
1 1 1 1 1 1 1 10:-0.678832 128:-0.790368 
1 1 1 1 1 1 1 10:-0.547445 128:-0.654391 
1 1 1 1 1 1 1 10:-0.883212 128:-0.847025 
1 1 1 1 1 1 1 10:-0.766423 128:-0.779037 
1 1 1 1 1 1 1 10:-0.839416 128:-0.711048 
1 1 1 1 1 1 1 10:-0.328467 128:-0.569405 
1 1 1 1 1 1 1 10:-0.343066 128:-0.558074 
1 1 1 1 1 1 1 10:-0.766423 128:-0.784703 
1 1 1 1 1 1 1 10:-0.927007 128:-0.864023 
1 1 1 1 0 1 1 10:-0.970803 128:-0.892351 
1 1 1 1 1 1 1 10:-0.810219 128:-0.756374 
1 1 1 1 1 1 1 10:-0.868613 128:-0.824363 
1 1 1 1 1 1 1 10:-0.357664 128:-0.648725 
1 1 1 1 1 1 1 10:-0.781022 128:-0.688385 
1 1 1 1 1 1 1 10:-0.664234 128:-0.869688 
1 1 1 1 1 1 1 10:-0.883212 128:-0.784703 
1 1 1 1 1 1 1 10:-0.810219 128:-0.813031 
1 1 1 1 1 1 1 10:-0.941606 128:-0.869688 
1 1 1 1 1 1 1 10:-0.664234 128:-0.903683 
1 1 1 1 1 1 1 10:-0.839416 128:-0.92068 
1 1 1 1 1 1 1 10:-0.576642 128:-0.852691 
1 1 1 1 1 1 1 10:-0.678832 128:-0.733711 
1 1 1 1 1 1 1 10:-0.912409 128:-0.898017 
1 1 1 1 1 1 1 10:-0.781022 128:-0.830028 
1 1 1 1 1 1 1 10:-0.445255 128:-0.643059 
1 1 1 1 1 1 1 10:-0.79562 128:-0.784703 
1 1 1 1 1 1 1 10:-0.489051 128:-0.677054 
1 1 1 1 1 1 1 10:-0.722628 128:-0.711048 
1 1 1 1 1 1 1 10:-0.722628 128:-0.750708 
1 1 1 1 1 1 1 10:-0.824818 128:-0.909348 
1 1 1 1 1 1 1 10:-0.722628 128:-0.779037 
1 1 1 1 1 1 1 10:-0.781022 128:-0.784703 
1 1 1 1 1 1 1 10:-0.737226 128:-0.784703 
1 1 1 1 1 1 1 10:-0.854015 128:-0.852691 
1 1 1 1 1 1 1 10:-0.824818 128:-0.773371 
1 1 1 1 1 1 1 10:-0.810219 128:-0.926346 
1 1 1 1 1 1 1 10:-0.693431 128:-0.767705 
1 1 1 1 1 1 1 10:-0.489051 128:-0.84136 
1 1 1 1 1 1 1 10:-0.722628 128:-0.609065 
1 1 1 1 1 1 1 10:-0.737226 128:-0.954674 
1 1 1 1 1 1 1 10:-0.737226 128:-0.750708 
1 1 1 1 1 1 1 10:-0.79562 128:-0.88102 
1 1 1 1 1 1 1 10:-0.50365 128:-0.705382 
1 1 1 1 1 1 1 10:-0.678832 128:-0.864023 
1 1 1 1 1 1 1 10:-0.824818 128:-0.813031 
1 1 1 1 1 1 1 10:-0.766423 128:-0.688385 
1 1 1 1 1 1 1 10:-0.50365 128:-0.631728 
1 1 1 1 1 1 1 10:-0.737226 128:-0.858357 
1 1 1 1 1 1 1 10:-0.854015 128:-0.869688 
1 1 1 1 1 1 1 10:-0.781022 128:-0.818697 
1 1 1 1 1 1 1 10:-0.751825 128:-0.745042 
1 1 1 1 1 1 1 10:-0.868613 128:-0.892351 
1 1 1 1 1 1 1 10:-0.737226 128:-0.869688 
1 1 1 1 1 1 1 10:-0.445255 128:-0.541076 
1 1 1 1 1 1 1 10:-0.591241 128:-0.739377 
1 1 1 1 1 1 1 10:-0.766423 128:-0.745042 
1 1 1 1 1 1 1 10:-0.766423 128:-0.84136 
1 1 1 1 1 1 1 10:-0.474453 128:-0.76204 
1 1 1 1 1 1 1 10:-0.824818 128:-0.898017 
1 1 1 1 1 1 1 10:-0.824818 128:-0.858357 
1 1 1 1 1 1 1 10:-0.79562 128:-0.807365 
1 1 1 1 1 1 1 10:-0.79562 128:-0.847025 
1 1 1 1 1 1 1 10:-0.737226 128:-0.813031 
1 1 1 1 1 1 1 10:-0.883212 128:-0.813031 
1 1 1 1 1 1 1 10:-0.678832 128:-0.847025 
1 1 1 1 1 1 1 10:-0.343066 128:-0.444759 
1 1 1 1 1 1 1 10:0.0656934 128:-0.269122 
1 1 1 1 1 1 1 10:-0.927007 128:-0.813031 
1 1 1 1 0 1 1 10:-0.970803 128:-0.903683 
1 1 1 1 1 1 1 10:-0.824818 128:-0.92068 
1 1 1 1 1 1 1 10:-0.737226 128:-0.864023 
1 1 1 1 1 1 1 10:-0.927007 128:-0.818697 
1 1 1 1 1 1 1 10:-0.824818 128:-0.779037 
1 1 1 1 1 1 1 10:-0.854015 128:-0.818697 
1 1 1 1 1 1 1 10:-0.79562 128:-0.745042 
1 1 1 1 1 1 1 10:-0.649635 128:-0.796034 
1 1 1 1 1 1 1 10:-0.89781 128:-0.739377 
1 1 1 1 1 1 1 10:-0.547445 128:-0.852691 
1 1 1 1 1 1 1 10:-0.810219 128:-0.847025 
1 1 1 1 1 1 1 10:-0.547445 128:-0.665722 
1 1 1 1 1 1 1 10:-0.839416 128:-0.909348 
1 1 1 1 1 1 1 10:-0.927007 128:-0.886686 
1 1 1 1 1 1 1 10:-0.912409 128:-0.784703 
1 1 1 1 1 1 1 10:-0.751825 128:-0.733711 
1 1 1 1 1 1 1 10:-0.751825 128:-0.835694 
1 1 1 1 1 1 1 10:-0.328467 128:-0.286119 
1 1 1 1 1 1 1 10:-0.372263 128:-0.592068 
1 1 1 1 1 1 1 10:-0.839416 128:-0.852691 
1 1 1 1 1 1 1 10:-0.79562 128:-0.796034 
1 1 1 1 1 1 1 10:-0.722628 128:-0.818697 
1 1 1 1 1 1 1 10:-0.664234 128:-0.858357 
1 1 1 1 1 1 1 10:-0.824818 128:-0.892351 
1 1 1 1 1 1 1 10:-0.824818 128:-0.909348 
1 1 1 1 1 1 1 10:-0.883212 128:-0.869688 
1 1 1 1 1 1 1 10:-0.693431 128:-0.847025 
1 1 1 1 1 1 1 10:-0.868613 128:-0.858357 
1 1 1 1 1 1 1 10:-0.824818 128:-0.875354 
1 1 1 1 1 1 1 10:-0.883212 128:-0.898017 
1 1 1 1 1 1 1 10:-0.766423 128:-0.830028 
1 1 1 1 1 1 1 10:-0.79562 128:-0.835694 
1 1 1 1 1 1 1 10:-0.766423 128:-0.711048 
1 1 1 1 1 1 1 10:-0.737226 128:-0.688385 
1 1 1 1 1 1 1 10:-0.459854 128:-0.677054 
1 1 1 1 1 1 1 10:-0.854015 128:-0.875354 
1 1 1 1 1 1 1 10:-0.737226 128:-0.807365 
1 1 1 1 1 1 1 10:-0.751825 128:-0.88102 
1 1 1 1 1 1 1 10:-0.0656934 128:-0.121813 
1 1 1 1 1 1 1 10:-0.678832 128:-0.648725 
-1 1 1 1 1 1 1 10:-0.372263 128:-0.575071 
-1 1 1 1 1 1 1 10:-0.430657 128:-0.376771 
-1 1 1 1 1 1 1 10:-0.328467 128:-0.580737 
-1 1 1 1 1 1 1 10:-0.284672 128:-0.365439 
-1 1 1 1 1 1 1 10:-0.372263 128:-0.354108 
-1 1 1 1 1 1 1 10:-0.459854 128:-0.541076 
-1 1 1 1 1 1 1 10:-0.40146 128:-0.325779 
-1 1 1 1 1 1 1 10:-0.313869 128:-0.314448 
-1 1 1 1 1 1 1 10:-0.430657 128:-0.478754 
-1 1 1 1 1 1 1 10:-0.518248 128:-0.665722 
-1 1 1 1 1 1 1 10:-0.226277 128:-0.546742 
-1 1 1 1 1 1 1 10:-0.386861 128:-0.478754 
-0 1 1 1 1 1 1 10:-0.167883 128:-0.280453 
-1 1 1 1 1 1 1 10:-0.474453 128:-0.439093 
-1 1 1 1 1 1 1 10:-0.576642 128:-0.490085 
-1 1 1 1 1 1 1 10:-0.372263 128:-0.342776 
-0 1 1 1 1 1 1 10:-0.138686 128:-0.280453 
-1 1 1 1 1 1 1 10:-0.270073 128:-0.461756 
-1 1 1 1 1 1 1 10:-0.547445 128:-0.433428 
-1 1 1 1 1 1 1 10:-0.416058 128:-0.229462 
-1 1 1 1 1 1 1 10:-0.489051 128:-0.512748 
-1 1 1 1 1 1 1 10:-0.445255 128:-0.512748 
-1 1 1 1 1 1 1 10:-0.226277 128:-0.461756 
-1 1 1 1 1 1 1 10:-0.313869 128:-0.280453 
-0 1 1 1 1 1 1 10:-0.0948905 128:-0.206799 
-1 1 1 1 1 1 1 10:-0.591241 128:-0.280453 
-1 1 1 1 1 1 1 10:-0.50365 128:-0.490085 
-1 1 1 1 1 1 1 10:-0.562044 128:-0.535411 
-1 1 1 1 1 1 1 10:-0.226277 128:-0.354108 
-1 1 1 1 1 1 1 10:-0.270073 128:-0.342776 
-0 1 1 1 1 1 1 10:0.080292 128:-0.314448 
-0 1 0 1 1 1 1 10:-0.153285 128:0.184136 
-1 1 1 1 1 1 1 10:-0.284672 128:-0.444759 
-1 1 1 1 1 1 1 10:-0.328467 128:-0.252125 
-0 1 1 1 1 1 1 10:-0.0218978 128:0.00849858 
-1 1 1 1 1 1 1 10:-0.430657 128:-0.314448 
-1 1 1 1 1 1 1 10:-0.255474 128:-0.416431 
-0 1 1 1 1 1 1 10:-0.153285 128:-0.286119 
-1 1 1 1 1 1 1 10:-0.678832 128:-0.552408 
-1 1 1 1 1 1 1 10:-0.532847 128:-0.450425 
-0 1 0 1 1 1 1 10:0.109489 128:0.00849858 
-1 1 1 1 1 1 1 10:-0.489051 128:-0.376771 
-1 1 1 1 1 1 1 10:-0.489051 128:-0.314448 
-0 1 1 1 1 1 1 10:-0.0656934 128:-0.320113 
-1 1 1 1 1 1 1 10:-0.357664 128:-0.399433 
-1 1 1 1 1 1 1 10:-0.635036 128:-0.450425 
-1 1 1 1 1 1 1 10:-0.430657 128:-0.365439 
-1 1 1 1 1 1 1 10:-0.605839 128:-0.473088 
-0 1 1 1 1 1 1 10:-0.00729927 128:-0.325779 
-1 1 1 1 1 1 1 10:-0.416058 128:-0.444759 
-1 1 1 1 1 1 1 10:-0.357664 128:-0.433428 
-1 1 1 1 1 1 1 10:-0.29927 128:-0.314448 
-0 1 1 1 1 1 1 10:-0.153285 128:-0.29745 
-1 1 1 1 1 1 1 10:-0.153285 128:-0.427762 
-0 1 1 1 1 1 1 10:-0.167883 128:-0.17847 
-1 1 1 1 1 1 1 10:-0.445255 128:-0.405099 
-1 1 1 1 1 1 1 10:-0.547445 128:-0.512748 
-1 1 1 1 1 1 1 10:-0.357664 128:-0.439093 
-1 1 1 1 1 1 1 10:-0.386861 128:-0.25779 
-1 1 1 1 1 1 1 10:-0.50365 128:-0.535411 
-1 1 1 1 1 1 1 10:-0.693431 128:-0.694051 
-0 1 1 1 1 1 1 10:-0.328467 128:-0.0594901 
-1 1 1 1 1 1 1 10:-0.562044 128:-0.320113 
-1 1 1 1 1 1 1 10:-0.270073 128:-0.354108 
-1 1 1 1 1 1 1 10:-0.824818 128:-0.677054 
-1 1 1 1 1 1 1 10:-0.109489 128:-0.405099 
-1 1 1 1 1 1 1 10:-0.576642 128:-0.507082 
-1 1 1 1 1 1 1 10:-0.313869 128:-0.371105 
-1 1 1 1 1 1 1 10:-0.445255 128:-0.416431 
-1 1 1 1 1 1 1 10:-0.489051 128:-0.541076 
-0 1 1 1 1 1 1 10:-0.167883 128:-0.240793 
-0 1 1 1 1 1 1 10:-0.153285 128:-0.229462 
-1 1 1 1 1 1 1 10:-0.29927 128:-0.25779 
-1 1 1 1 1 1 1 10:-0.343066 128:-0.269122 
-1 1 1 1 1 1 1 10:-0.532847 128:-0.342776 
-1 1 1 1 1 1 1 10:-0.080292 128:-0.546742 
-1 1 1 1 1 1 1 10:-0.40146 128:-0.535411 
-1 1 1 1 1 1 1 10:-0.328467 128:-0.461756 
-1 1 1 1 1 1 1 10:-0.518248 128:-0.620397 
-1 1 1 1 1 1 1 10:-0.343066 128:-0.371105 
-1 1 1 1 1 1 1 10:-0.416058 128:-0.660057 
-1 1 1 1 1 1 1 10:-0.50365 128:-0.484419 
-1 1 1 1 1 1 1 10:-0.386861 128:-0.495751 
-1 1 1 1 1 1 1 10:-0.328467 128:-0.376771 
-1 1 1 1 1 1 1 10:-0.255474 128:-0.388102 
-0 1 1 1 1 1 1 10:-0.445255 128:-0.0481586 
-1 1 1 1 1 1 1 10:-0.649635 128:-0.535411 
-1 1 1 1 1 1 1 10:-0.649635 128:-0.813031 
-1 1 1 1 1 1 1 10:-0.50365 128:-0.716714 
-0 1 1 1 1 1 1 10:-0.167883 128:-0.195467 
-1 1 1 1 1 1 1 10:-0.489051 128:-0.524079 
-1 1 1 1 1 1 1 10:-0.226277 128:-0.303116 
-0 1 1 1 1 1 1 10:-0.109489 128:-0.320113 
-1 1 1 1 1 1 1 10:-0.0656934 128:-0.422096 
-0 1 1 1 1 1 1 10:-0.138686 128:-0.172805 
-1 1 1 1 1 1 1 10:-0.313869 128:-0.354108 
-1 1 1 1 1 1 1 10:-0.416058 128:-0.416431 
-1 1 1 1 1 1 1 10:-0.284672 128:-0.399433 
-1 1 1 1 1 1 1 10:-0.489051 128:-0.291785 
-1 1 1 1 1 1 1 10:-0.591241 128:-0.575071 
-1 1 1 1 1 1 1 10:-0.562044 128:-0.535411 
-0 1 1 1 1 1 1 10:-0.226277 128:-0.195467 
-1 1 1 1 1 1 1 10:-0.474453 128:-0.535411 
-1 1 1 1 1 1 1 10:-0.372263 128:-0.467422 
-1 1 1 1 1 1 1 10:-0.518248 128:-0.507082 
-0 1 1 1 1 1 1 10:-0.0656934 128:0.0481586 
-1 1 1 1 1 1 1 10:-0.445255 128:-0.473088 
-1 1 1 1 1 1 1 10:-0.430657 128:-0.563739 
-1 1 1 1 1 1 1 10:-0.547445 128:-0.223796 
-0 1 0 1 1 1 1 10:0.167883 128:0.0878187 
-1 1 1 1 1 1 1 10:-0.532847 128:-0.597734 
-0 1 1 1 1 1 1 10:-0.0656934 128:-0.184136 
-1 1 1 1 1 1 1 10:-0.474453 128:-0.184136 
-1 1 1 1 1 1 1 10:-0.532847 128:-0.501416 
-1 1 1 1 1 1 1 10:-0.182482 128:-0.371105 
-1 1 1 1 1 1 1 10:-0.489051 128:-0.626062 
-1 1 1 1 1 1 1 10:-0.518248 128:-0.495751 
-0 1 1 1 1 1 1 10:0.0218978 128:-0.121813 
-1 1 1 1 1 1 1 10:-0.328467 128:-0.467422 
-1 1 1 1 1 1 1 10:-0.591241 128:-0.518414 
-1 1 1 1 1 1 1 10:-0.445255 128:-0.184136 
-1 1 1 1 1 1 1 10:-0.562044 128:-0.405099 
-0 1 1 1 1 1 1 10:-0.109489 128:-0.354108 
-1 1 1 1 1 1 1 10:-0.357664 128:-0.728045 
-1 1 1 1 1 1 1 10:-0.693431 128:-0.728045 
-1 1 1 1 1 1 1 10:-0.386861 128:-0.365439 
-1 1 1 1 1 1 1 10:-0.328467 128:-0.365439 
-1 1 1 1 1 1 1 10:-0.430657 128:-0.529745 
-1 1 1 1 1 1 1 10:-0.518248 128:-0.456091 
-1 1 1 1 1 1 1 10:-0.416058 128:-0.433428 
-1 1 1 1 1 1 1 10:-0.29927 128:-0.291785 
-0 1 1 1 1 1 1 10:-0.167883 128:-0.229462 
-1 1 1 1 1 1 1 10:-0.664234 128:-0.495751 
-1 1 1 1 1 1 1 10:-0.270073 128:-0.308782 
-1 1 1 1 1 1 1 10:-0.313869 128:-0.274788 
-1 1 1 1 1 1 1 10:-0.328467 128:-0.501416 
-1 1 1 1 1 1 1 10:-0.50365 128:-0.518414 
-1 1 1 1 1 1 1 10:-0.635036 128:-0.535411 
-1 1 1 1 1 1 1 10:-0.270073 128:-0.240793 
-1 1 1 1 1 1 1 10:-0.737226 128:-0.688385 
-1 1 1 1 1 1 1 10:-0.474453 128:-0.388102 
-1 1 1 1 1 1 1 10:-0.635036 128:-0.756374 
-1 1 1 1 1 1 1 10:-0.430657 128:-0.348442 
-1 1 1 1 1 1 1 10:-0.153285 128:-0.376771 
-0 1 1 1 1 1 1 10:-0.226277 128:-0.235127 
-1 1 1 1 1 1 1 10:-0.693431 128:-0.665722 
-1 1 1 1 1 1 1 10:-0.313869 128:-0.410765 
-1 1 1 1 1 1 1 10:-0.328467 128:-0.263456 
-1 1 1 1 1 1 1 10:-0.518248 128:-0.405099 
-1 1 1 1 1 1 1 10:-0.357664 128:-0.201133 
-1 1 1 1 1 1 1 10:-0.284672 128:-0.359773 
-0 1 1 1 1 1 1 10:-0.0510949 128:-0.206799 
-1 1 1 1 1 1 1 10:-0.255474 128:-0.33711 
-1 1 1 1 1 1 1 10:-0.357664 128:-0.354108 
-1 1 1 1 1 1 1 10:-0.547445 128:-0.603399 
-1 1 1 1 1 1 1 10:-0.29927 128:-0.314448 
-1 1 1 1 1 1 1 10:-0.489051 128:-0.507082 
-1 1 1 1 1 1 1 10:-0.532847 128:-0.365439 
-1 1 1 1 1 1 1 10:-0.284672 128:-0.331445 
-1 1 1 1 1 1 1 10:-0.226277 128:-0.439093 
-0 1 1 1 1 1 1 10:-0.0364964 128:-0.223796 
-1 1 1 1 1 1 1 10:-0.211679 128:-0.325779 
-1 1 1 1 1 1 1 10:-0.605839 128:-0.422096 
-1 1 1 1 1 1 1 10:-0.343066 128:-0.490085 
-1 1 1 1 1 1 1 10:-0.445255 128:-0.433428 
-0 1 1 1 1 1 1 10:-0.0656934 128:-0.314448 
-1 1 1 1 1 1 1 10:-0.386861 128:-0.348442 
-1 1 1 1 1 1 1 10:-0.474453 128:-0.484419 
-1 1 1 1 1 1 1 10:-0.562044 128:-0.303116 
-1 1 1 1 1 1 1 10:-0.372263 128:-0.427762 
-1 1 1 1 1 1 1 10:-0.50365 128:-0.614731 
-1 1 1 1 1 1 1 10:-0.474453 128:-0.410765 
-1 1 1 1 1 1 1 10:-0.430657 128:-0.359773 
-0 1 1 1 1 1 1 10:-0.138686 128:-0.314448 
-1 1 1 1 1 1 1 10:-0.547445 128:-0.399433 
-1 1 1 1 1 1 1 10:-0.40146 128:-0.473088 
-1 1 1 1 1 1 1 10:-0.416058 128:-0.422096 
-1 1 1 1 1 1 1 10:-0.357664 128:-0.399433 
-1 1 1 1 1 1 1 10:-0.386861 128:-0.416431 
-1 1 1 1 1 1 1 10:-0.459854 128:-0.461756 
-0 1 1 1 1 1 1 10:-0.19708 128:-0.0764873 
-1 1 1 1 1 1 1 10:-0.459854 128:-0.524079 
-1 1 1 1 1 1 1 10:-0.50365 128:-0.711048 
-1 1 1 1 1 1 1 10:-0.416058 128:-0.246459 
-1 1 1 1 1 1 1 10:-0.620438 128:-0.444759 
-1 1 1 1 1 1 1 10:-0.29927 128:-0.280453 
-0 1 1 1 1 1 1 10:-0.19708 128:-0.206799 
-0 1 1 1 1 1 1 10:-0.0948905 128:-0.223796 
-1 1 1 1 1 1 1 10:-0.40146 128:-0.354108 
-1 1 1 1 1 1 1 10:-0.313869 128:-0.280453 
-1 1 1 1 1 1 1 10:-0.284672 128:-0.303116 
-0 1 1 1 1 1 1 10:-0.167883 128:-0.263456 
-1 1 1 1 1 1 1 10:-0.328467 128:-0.422096 
-1 1 1 1 1 1 1 10:-0.576642 128:-0.399433 
-1 1 1 1 1 1 1 10:-0.445255 128:-0.586402 
-1 1 1 1 1 1 1 10:-0.459854 128:-0.518414 
-1 1 1 1 1 1 1 10:-0.182482 128:-0.467422 
-0 1 1 1 1 1 1 10:-0.138686 128:0.0368272 
-1 1 1 1 1 1 1 10:-0.416058 128:-0.342776 
-0 1 1 1 1 1 1 10:-0.0656934 128:-0.116147 
-1 1 1 1 1 1 1 10:-0.29927 128:-0.291785 
-1 1 1 1 1 1 1 10:-0.313869 128:-0.325779 
-1 1 1 1 1 1 1 10:-0.386861 128:-0.416431 
-1 1 1 1 1 1 1 10:-0.372263 128:-0.484419 
-1 1 1 1 1 1 1 10:-0.357664 128:-0.473088 
-1 1 1 1 1 1 1 10:-0.372263 128:-0.586402 
-1 1 1 1 1 1 1 10:-0.226277 128:-0.365439 
-0 1 1 1 1 1 1 10:0.0656934 128:-0.252125 
-1 1 1 1 1 1 1 10:-0.547445 128:-0.450425 
-1 1 1 1 1 1 1 10:-0.635036 128:-0.631728 
-0 1 1 1 1 1 1 10:-0.124088 128:-0.01983 
-1 1 1 1 1 1 1 10:-0.328467 128:-0.280453 
-1 1 1 1 1 1 1 10:-0.445255 128:-0.416431 
-1 1 1 1 1 1 1 10:-0.328467 128:-0.25779 
-1 1 1 1 1 1 1 10:-0.489051 128:-0.410765 
-1 1 1 1 1 1 1 10:-0.664234 128:-0.541076 
-1 1 1 1 1 1 1 10:-0.313869 128:-0.643059 
-1 1 1 1 1 1 1 10:-0.518248 128:-0.586402 
-1 1 1 1 1 1 1 10:-0.620438 128:-0.33711 
-1 1 1 1 1 1 1 10:-0.518248 128:-0.563739 
-1 1 1 1 1 1 1 10:-0.562044 128:-0.677054 
-1 1 1 1 1 1 1 10:-0.50365 128:-0.376771 
-1 1 1 1 1 1 1 10:-0.430657 128:-0.473088 
-1 1 1 1 1 1 1 10:-0.357664 128:-0.393768 
-1 1 1 1 1 1 1 10:-0.474453 128:-0.410765 
-1 1 1 1 1 1 1 10:-0.430657 128:-0.371105 
-1 1 1 1 1 1 1 10:-0.547445 128:-0.433428 
-1 1 1 1 1 1 1 10:-0.591241 128:-0.512748 
-1 1 1 1 1 1 1 10:-0.50365 128:-0.535411 
-1 1 1 1 1 1 1 10:-0.562044 128:-0.473088 
-1 1 1 1 1 1 1 10:-0.29927 128:-0.365439 
-1 1 1 1 1 1 1 10:-0.29927 128:-0.235127 
-1 1 1 1 1 1 1 10:-0.605839 128:-0.609065 
-1 1 1 1 1 1 1 10:-0.430657 128:-0.342776 
-0 -1 1 1 1 1 1 10:-0.255474 128:-0.405099 
-0 -1 0 1 1 1 1 10:0.0364964 128:-0.246459 
-1 -0 1 1 1 1 1 10:-0.547445 128:-0.716714 
-1 -1 1 1 1 1 1 10:-0.591241 128:-0.535411 
-0 -1 0 1 1 1 1 10:0.0656934 128:-0.252125 
-0 -1 1 1 1 1 1 10:-0.138686 128:-0.461756 
-1 -1 1 1 1 1 1 10:-0.591241 128:-0.541076 
-1 -1 1 1 0 1 0 10:-0.824818 128:-0.773371 
-1 -0 1 1 0 1 0 10:-0.883212 128:-0.886686 
-0 -1 1 1 1 1 1 10:-0.313869 128:-0.342776 
-1 -1 1 1 1 1 1 10:-0.635036 128:-0.68272 
-0 -1 1 1 1 1 1 10:-0.153285 128:-0.439093 
-1 -0 1 1 0 1 0 10:-0.824818 128:-0.932011 
-0 -1 1 1 1 1 1 10:-0.138686 128:-0.359773 
-0 -1 1 1 1 1 1 10:-0.211679 128:-0.433428 
-1 -0 1 0 1 1 1 10:-0.167883 128:-0.609065 
-1 -0 1 0 1 1 0 10:-0.430657 128:-0.76204 
-1 -0 1 0 1 1 1 10:-0.270073 128:-0.728045 
-1 -0 1 0 1 1 0 10:-0.430657 128:-0.796034 
-1 -0 1 1 1 1 0 10:-0.562044 128:-0.739377 
-1 -1 1 1 1 1 1 10:-0.386861 128:-0.382436 
-1 -1 1 1 1 1 1 10:-0.343066 128:-0.592068 
-1 -0 1 0 1 1 1 10:-0.328467 128:-0.705382 
-1 -1 1 1 1 1 1 10:-0.532847 128:-0.643059 
-0 -1 1 1 1 1 1 10:-0.0510949 128:-0.33711 
-1 -1 1 1 1 1 1 10:-0.664234 128:-0.501416 
-1 -1 1 1 1 1 1 10:-0.649635 128:-0.677054 
-1 -1 1 1 1 1 1 10:-0.620438 128:-0.660057 
-1 -1 1 1 1 1 1 10:-0.445255 128:-0.603399 
-0 -0 1 1 1 1 1 10:-0.153285 128:-0.529745 
-1 -1 1 1 1 1 1 10:-0.255474 128:-0.495751 
-1 -1 1 1 1 1 1 10:-0.343066 128:-0.518414 
-0 -0 1 0.9083891684935314 1 1 1 10:-0.138686 128:-0.541076 
-0 -1 1 1 1 1 1 10:-0.284672 128:-0.320113 
-1 -1 1 1 1 1 1 10:-0.357664 128:-0.388102 
-1 -0 1 1 1 1 1 10:-0.50365 128:-0.694051 
-1 -1 1 1 1 1 1 10:-0.328467 128:-0.478754 
-1 -1 1 1 1 1 1 10:-0.386861 128:-0.597734 
-1 -1 1 1 1 1 1 10:-0.416058 128:-0.512748 
-1 -1 1 1 1 1 1 10:-0.489051 128:-0.575071 
-0 -1 1 1 1 1 1 10:-0.240876 128:-0.348442 
-0 -1 1 1 1 1 1 10:-0.343066 128:-0.308782 
-1 -1 1 1 1 1 0 10:-0.693431 128:-0.750708 
-1 -1 1 1 1 1 1 10:-0.489051 128:-0.626062 
-1 -0 1 1 0 1 0 10:-0.751825 128:-0.898017 
-0 -1 1 1 1 1 1 10:-0.19708 128:-0.382436 
-0 -1 1 1 1 1 1 10:-0.284672 128:-0.382436 
-1 -0 1 1 1 1 1 10:-0.489051 128:-0.711048 
-0 -1 0 1 1 1 1 10:0.313869 128:-0.184136 
-1 -1 1 1 1 1 1 10:-0.635036 128:-0.716714 
-0 -1 1 1 1 1 1 10:-0.255474 128:-0.439093 
-1 -1 1 1 1 1 1 10:-0.532847 128:-0.597734 
-1 -1 1 1 1 1 1 10:-0.255474 128:-0.541076 
-0 -1 1 1 1 1 1 10:-0.153285 128:-0.410765 
-0 -1 1 1 1 1 1 10:-0.138686 128:-0.235127 
-1 -1 1 1 1 1 0 10:-0.708029 128:-0.779037 
-0 -1 0 1 1 1 1 10:0.109489 128:-0.331445 
-0 -1 1 1 1 1 1 10:0.00729927 128:-0.416431 
-1 -1 1 1 1 1 1 10:-0.489051 128:-0.671388 
-1 -0 1 1 1 1 1 10:-0.547445 128:-0.733711 
-1 -1 1 1 1 1 1 10:-0.620438 128:-0.614731 
-1 -0 1 1 0 1 0 10:-0.737226 128:-0.898017 
-1 -0 1 0 1 1 1 10:-0.29927 128:-0.699717 
-0 -1 0 1 1 1 1 10:0.0218978 128:-0.082153 
-1 -0 1 0 1 1 0 10:-0.357664 128:-0.745042 
-1 -0 1 1 1 1 1 10:-0.328467 128:-0.609065 
-0 -1 1 1 1 1 1 10:-0.211679 128:-0.512748 
-1 -0 1 1 0 1 0 10:-0.693431 128:-0.796034 
-0 -1 1 1 1 1 1 10:-0.211679 128:-0.450425 
-0 -1 1 1 1 1 1 10:-0.211679 128:-0.359773 
-1 -0 1 0 1 1 0 10:-0.430657 128:-0.847025 
-1 -1 1 1 1 1 1 10:-0.343066 128:-0.467422 
-0 -1 1 1 1 1 1 10:-0.109489 128:-0.439093 
-1 -0 1 0 1 1 1 10:-0.372263 128:-0.72238 
-1 -1 1 1 1 1 1 10:-0.226277 128:-0.535411 
-1 -1 1 1 1 1 1 10:-0.284672 128:-0.439093 
-1 -1 1 1 1 1 1 10:-0.328467 128:-0.575071 
-1 -0 1 1 1 1 1 10:-0.459854 128:-0.699717 
-1 -1 1 1 0 1 0 10:-0.737226 128:-0.8017 
-1 -1 1 1 1 1 1 10:-0.532847 128:-0.671388 
-0 -1 1 1 1 1 1 10:-0.182482 128:-0.518414 
-0 -1 1 1 1 1 1 10:-0.19708 128:-0.25779 
-0 -1 1 1 1 1 1 10:-0.124088 128:-0.291785 
-0 -1 1 1 1 1 1 10:-0.138686 128:-0.331445 
-1 -0 1 1 0 1 0 10:-0.708029 128:-0.830028 
-1 -1 1 1 1 1 1 10:-0.532847 128:-0.433428 
-1 -0 1 1 1 1 1 10:-0.547445 128:-0.716714 
-0 -1 0 1 1 1 1 10:0.445255 128:-0.121813 
-1 -1 1 1 1 1 1 10:-0.343066 128:-0.376771 
-1 -1 1 1 0 1 0 10:-0.883212 128:-0.88102 
-1 -1 1 1 1 1 1 10:-0.29927 128:-0.439093 
-0 -1 1 1 1 1 1 10:0.00729927 128:-0.325779 
-1 -1 1 1 1 1 1 10:-0.416058 128:-0.631728 
-0 -1 1 1 1 1 1 10:-0.226277 128:-0.422096 
-1 -1 1 1 1 1 1 10:-0.547445 128:-0.563739 
-1 -0 1 0 1 1 1 10:-0.343066 128:-0.68272 
-1 -0 1 1 1 1 1 10:-0.328467 128:-0.620397 
-0 -0 1 0 1 1 1 10:0.0218978 128:-0.529745 
-1 -1 1 1 1 1 1 10:-0.678832 128:-0.699717 
-1 -0 1 1 1 1 1 10:-0.459854 128:-0.728045 
-1 -1 1 1 1 1 1 10:-0.562044 128:-0.597734 
-0 -0 1 1 1 1 1 10:0.0218978 128:-0.439093 
-0 -1 1 1 1 1 1 10:0.0218978 128:-0.348442 
-1 -1 1 1 0 1 0 10:-0.883212 128:-0.864023 
-0 -1 0 1 1 1 1 10:0.138686 128:-0.0651558 
-1 -1 1 1 1 1 1 10:-0.445255 128:-0.580737 
-0 -1 0 1 1 1 1 10:0.226277 128:-0.0538244 
-0 -1 1 1 1 1 1 10:-0.182482 128:-0.354108 
-1 -1 1 1 1 1 1 10:-0.255474 128:-0.501416 
-1 -1 1 1 0 1 0 10:-0.89781 128:-0.88102 
-0 -0 1 1 1 1 1 10:-0.0948905 128:-0.490085 
-1 -0 1 1 0 1 0 10:-0.781022 128:-0.88102 
-1 -1 1 1 1 1 0 10:-0.649635 128:-0.76204 
-1 -1 1 1 1 1 1 10:-0.459854 128:-0.541076 
-1 -0 1 1 0 1 0 10:-0.751825 128:-0.84136 
-0 -0 1 1 1 1 1 10:-0.109489 128:-0.512748 
-1 -1 1 1 1 1 1 10:-0.430657 128:-0.507082 
-1 -0 1 0 1 1 0 10:-0.532847 128:-0.852691 
-0 -1 1 1 1 1 1 10:-0.313869 128:-0.144476 
-1 -0 1 1 1 1 0 10:-0.635036 128:-0.818697 
-1 -1 1 1 1 1 1 10:-0.50365 128:-0.688385 
-1 -1 1 1 0 1 0 10:-0.781022 128:-0.790368 
-1 -0 1 0 1 1 1 10:-0.328467 128:-0.68272 
-1 -1 1 1 0 1 0 10:-0.927007 128:-0.898017 
-1 -0 1 1 0 1 0 10:-0.664234 128:-0.847025 
-1 -1 1 1 1 1 1 10:-0.489051 128:-0.603399 
-1 -1 1 1 1 1 1 10:-0.518248 128:-0.512748 
-1 -1 1 1 1 1 1 10:-0.445255 128:-0.660057 
-0 -1 1 1 1 1 1 10:-0.240876 128:-0.348442 
-1 -1 1 1 1 1 1 10:-0.313869 128:-0.541076 
-0 -1 1 1 1 1 1 10:-0.255474 128:-0.410765 
-1 -0 1 1 1 1 0 10:-0.50365 128:-0.739377 
-1 -1 1 1 1 1 1 10:-0.532847 128:-0.654391 
-1 -1 1 1 1 1 1 10:-0.386861 128:-0.473088 
-1 -1 1 1 1 1 1 10:-0.474453 128:-0.631728 
-0 -0 0 0.3498624342715719 1 1 1 10:0.153285 128:-0.359773 
-0 -1 1 1 1 1 1 10:-0.182482 128:-0.371105 
-0 -1 1 1 1 1 1 10:-0.124088 128:-0.439093 
-1 -1 1 1 1 1 1 10:-0.343066 128:-0.410765 
-1 -1 1 1 1 1 1 10:-0.386861 128:-0.592068 
-1 -1 1 1 1 1 0 10:-0.708029 128:-0.76204 
-1 -1 1 1 1 1 1 10:-0.518248 128:-0.507082 
-1 -0 1 1 0 1 0 10:-0.79562 128:-0.84136 
-1 -1 1 1 0 1 0 10:-0.737226 128:-0.779037 
-0 -0 1 0 1 1 1 10:0.080292 128:-0.427762 
-1 -1 1 1 1 1 1 10:-0.372263 128:-0.501416 
-1 -0 1 0 1 1 0 10:-0.562044 128:-0.847025 
-1 -1 1 1 1 1 1 10:-0.357664 128:-0.382436 
-1 -1 1 1 1 1 1 10:-0.386861 128:-0.552408 
-1 -1 1 1 1 1 1 10:-0.547445 128:-0.665722 
-1 -0 1 1 0 1 0 10:-0.708029 128:-0.813031 
-0 -1 1 1 1 1 1 10:-0.109489 128:-0.427762 
-0 -1 1 1 1 1 1 10:-0.00729927 128:-0.314448 
-1 -1 1 1 1 1 1 10:-0.459854 128:-0.614731 
-1 -1 1 1 1 1 1 10:-0.605839 128:-0.733711 
-1 -1 1 1 1 1 1 10:-0.430657 128:-0.575071 
-0 -0 1 1 1 1 1 10:0.0364964 128:-0.422096 
-0 -1 1 1 1 1 1 10:-0.167883 128:-0.184136 
-1 -0 1 1 1 1 1 10:-0.474453 128:-0.733711 
-1 -1 1 1 1 1 1 10:-0.386861 128:-0.405099 
-1 -0 1 0 1 1 0 10:-0.328467 128:-0.784703 
-0 -1 0 1 1 1 1 10:0.167883 128:-0.320113 
-0 -1 1 1 1 1 1 10:-0.240876 128:-0.439093 
-1 -1 1 1 1 1 1 10:-0.474453 128:-0.586402 
-1 -1 1 1 0 1 0 10:-0.854015 128:-0.807365 
-0 -1 1 1 1 1 1 10:-0.00729927 128:-0.422096 
-1 -1 1 1 1 1 1 10:-0.532847 128:-0.586402 
-1 -1 1 1 1 1 1 10:-0.372263 128:-0.603399 
-1 -1 1 1 1 1 1 10:-0.40146 128:-0.558074 
-1 -0 1 1 1 1 0 10:-0.474453 128:-0.745042 
-1 -1 1 1 1 1 1 10:-0.328467 128:-0.416431 
-1 -1 1 1 1 1 1 10:-0.620438 128:-0.716714 
-0 -1 1 1 1 1 1 10:0.0656934 128:-0.388102 
-1 -0 1 0 1 1 0 10:-0.386861 128:-0.767705 
-0 -1 0 1 1 1 1 10:0.0948905 128:-0.342776 
-1 -0 1 1 1 1 0 10:-0.474453 128:-0.739377 
-0 -1 0 1 1 1 1 10:0.240876 128:0.167139 
-0 -1 1 1 1 1 1 10:-0.357664 128:-0.212465 
-1 -1 1 1 1 1 1 10:-0.605839 128:-0.631728 
-1 -0 1 0 1 1 0 10:-0.445255 128:-0.739377 
-0 -1 1 1 1 1 1 10:-0.313869 128:-0.359773 
-0 -1 1 1 1 1 1 10:-0.124088 128:-0.286119 
-1 -0 1 1 0 1 0 10:-0.708029 128:-0.858357 
-0 -1 1 1 1 1 1 10:-0.284672 128:-0.342776 
-0 -1 1 1 1 1 1 10:-0.124088 128:-0.461756 
-1 -1 1 1 1 1 1 10:-0.270073 128:-0.467422 
-0 -1 1 1 1 1 1 10:-0.226277 128:-0.382436 
-1 -1 1 1 1 1 1 10:-0.445255 128:-0.643059 
-1 -1 1 1 1 1 0 10:-0.649635 128:-0.76204 
-1 -1 1 1 1 1 1 10:-0.386861 128:-0.580737 
-1 -1 1 1 1 1 1 10:-0.29927 128:-0.580737 
-1 -0 1 0 1 1 1 10:-0.182482 128:-0.592068 
-0 -1 1 1 1 1 1 10:-0.00729927 128:-0.291785 
-1 -1 1 1 1 1 1 10:-0.562044 128:-0.597734 
-0 -0 1 0 1 1 1 10:0.0510949 128:-0.512748 
-0 -1 0 1 1 1 1 10:0.153285 128:-0.303116 
-0 -1 0 1 1 1 1 10:0.080292 128:-0.33711 
-0 -1 0 1 1 1 1 10:0.386861 128:0.0764873 
-1 -0 1 0.7417483972348967 1 1 0 10:-0.445255 128:-0.739377 
-1 -1 1 1 1 1 1 10:-0.489051 128:-0.620397 
-0 -1 1 1 1 1 1 10:-0.0510949 128:-0.325779 
-1 -0 1 0 1 1 1 10:-0.270073 128:-0.660057 
-1 -1 1 1 1 1 1 10:-0.430657 128:-0.541076 
-0 -1 1 1 1 1 1 10:-0.211679 128:-0.274788 
-0 -1 1 1 1 1 1 10:-0.240876 128:-0.382436 
-1 -0 1 1 0 1 0 10:-0.693431 128:-0.830028 
-1 -1 1 1 1 1 1 10:-0.40146 128:-0.484419 
-0 -1 1 1 1 1 1 10:-0.153285 128:-0.490085 
-1 -1 1 1 1 1 1 10:-0.445255 128:-0.399433 
-1 -1 1 1 1 1 1 10:-0.50365 128:-0.586402 
-1 -1 1 1 1 1 1 10:-0.562044 128:-0.495751 
-0 -1 0 1 1 1 1 10:0.0948905 128:-0.0311615 
-0 -1 1 1 1 1 1 10:-0.00729927 128:-0.274788 
-0 -1 1 1 1 1 1 10:-0.109489 128:-0.342776 
-0 -1 0 1 1 1 1 10:-0.0218978 128:-0.127479 
-0 -1 1 1 1 1 1 10:-0.167883 128:-0.507082 
-0 -1 1 1 1 1 1 10:-0.138686 128:-0.0594901 
-1 -0 1 1 1 1 1 10:-0.518248 128:-0.705382 
-0 -1 1 1 1 1 1 10:-0.138686 128:-0.252125 
-0 -1 1 1 1 1 1 10:-0.284672 128:-0.246459 
-0 -1 0 1 1 1 1 10:0.124088 128:-0.280453 
-0 -1 1 1 1 1 1 10:-0.153285 128:-0.235127 
-1 -1 1 1 1 1 1 10:-0.489051 128:-0.524079 
-1 -0 1 1 0 1 0 10:-0.854015 128:-0.949008 
-0 -1 1 1 1 1 1 10:-0.328467 128:-0.325779 
-1 -0 1 1 1 1 0 10:-0.547445 128:-0.750708 
-1 -1 1 1 1 1 0 10:-0.722628 128:-0.779037 
-0 -1 1 1 1 1 1 10:-0.0948905 128:-0.33711 
-0 -1 1 1 1 1 1 10:-0.109489 128:-0.484419 
-1 -1 1 1 1 1 1 10:-0.620438 128:-0.739377 
-1 -1 1 1 1 1 1 10:-0.620438 128:-0.72238 
-1 -1 1 1 1 1 1 10:-0.29927 128:-0.552408 
-0 -1 0 1 1 1 1 10:0.124088 128:-0.206799 
-1 -0 1 1 1 1 1 10:-0.445255 128:-0.68272 
-1 -1 1 1 1 1 1 10:-0.357664 128:-0.507082 
-1 -1 1 1 1 1 0 10:-0.649635 128:-0.745042 
-1 -1 1 1 1 1 1 10:-0.313869 128:-0.558074 
-1 -0 1 1 1 1 0 10:-0.591241 128:-0.790368 
-1 -1 1 1 1 1 1 10:-0.737226 128:-0.660057 
-1 -0 1 1 1 1 1 10:-0.372263 128:-0.643059 
-1 -0 1 0 1 1 0 10:-0.547445 128:-0.824363 
-0 -1 1 1 1 1 1 10:-0.182482 128:-0.314448 
-1 -0 1 0 1 1 1 10:-0.29927 128:-0.677054 
-0 -1 1 1 1 1 1 10:-0.167883 128:-0.478754 
-1 -1 1 1 1 1 1 10:-0.372263 128:-0.371105 
-0 -1 1 1 1 1 1 10:-0.182482 128:-0.229462 
-1 -1 1 1 1 1 1 10:-0.635036 128:-0.739377 
-0 -1 0 1 1 1 1 10:0.430657 128:-0.00849858 
-1 -1 1 1 1 1 1 10:-0.29927 128:-0.490085 
-1 -0 1 1 0 1 0 10:-0.664234 128:-0.852691 
-0 -0 0 0 1 1 1 10:0.328467 128:-0.490085 
-0 -1 1 1 1 1 1 10:-0.182482 128:-0.308782 
-0 -1 1 1 1 1 1 10:-0.270073 128:-0.382436 
-1 -1 1 1 1 1 1 10:-0.372263 128:-0.575071 
-1 -1 1 1 1 1 1 10:-0.708029 128:-0.711048 
-0 -1 0 1 1 1 1 10:0.167883 128:-0.291785 
-0 -1 1 1 1 1 1 10:-0.19708 128:-0.314448 
-1 -0 1 1 1 1 0 10:-0.576642 128:-0.813031 
-0 -1 1 1 1 1 1 10:-0.19708 128:-0.410765 
-1 -1 1 1 1 1 1 10:-0.459854 128:-0.541076 
-1 -1 1 1 1 1 1 10:-0.547445 128:-0.495751 
-1 -1 1 1 1 1 1 10:-0.664234 128:-0.597734 
-1 -1 1 1 1 1 1 10:-0.416058 128:-0.563739 
-0 -1 1 1 1 1 1 10:-0.109489 128:-0.439093 
-1 -1 1 1 0 1 0 10:-0.824818 128:-0.813031 
-1 -1 1 1 1 1 1 10:-0.357664 128:-0.354108 
-0 -1 1 1 1 1 1 10:-0.0510949 128:-0.291785 
-1 -1 1 1 1 1 1 10:-0.270073 128:-0.541076 
-1 -1 1 1 1 1 1 10:-0.635036 128:-0.552408 
-0 -1 0 1 1 1 1 10:0.0364964 128:-0.291785 
-1 -1 1 1 0 1 0 10:-0.810219 128:-0.807365 
-1 -1 1 1 1 1 1 10:-0.518248 128:-0.637394 
-1 -0 1 1 0 1 0 10:-0.620438 128:-0.835694 
-1 -1 1 1 1 1 1 10:-0.386861 128:-0.609065 
-1 -1 1 1 1 1 1 10:-0.226277 128:-0.546742 
-1 -1 1 1 0 1 0 10:-0.810219 128:-0.807365 
-0 -1 1 1 1 1 1 10:-0.182482 128:-0.29745 
-1 -1 1 1 1 1 1 10:-0.678832 128:-0.711048 
-1 -0 1 1 0 1 0 10:-0.722628 128:-0.818697 
-1 -1 1 1 0 1 0 10:-0.751825 128:-0.767705 
-1 -1 1 1 1 1 1 10:-0.474453 128:-0.552408 
-0 -1 1 1 1 1 1 10:-0.153285 128:-0.490085 
-0 -1 1 1 1 1 1 10:-0.270073 128:-0.365439 
-0 -1 1 1 1 1 1 10:-0.0218978 128:-0.269122 
-1 -1 1 1 1 1 1 10:-0.430657 128:-0.376771 
-1 -1 1 1 1 1 1 10:-0.562044 128:-0.68272 
-1 -1 1 1 1 1 1 10:-0.386861 128:-0.405099 
-1 -1 1 1 1 1 1 10:-0.430657 128:-0.393768 
-1 -1 1 1 1 1 1 10:-0.50365 128:-0.597734 
-1 -1 1 1 1 1 1 10:-0.678832 128:-0.733711 
-1 -1 1 1 1 1 1 10:-0.620438 128:-0.699717 
-1 -1 1 1 0 1 0 10:-0.781022 128:-0.796034 
-0 -0 1 0 1 1 1 10:-0.0364964 128:-0.518414 
-1 -1 1 1 1 1 1 10:-0.489051 128:-0.580737 
-0 -1 1 1 1 1 1 10:-0.29927 128:-0.280453 
-1 -1 1 1 1 1 1 10:-0.562044 128:-0.535411 
-1 -1 1 1 1 1 1 10:-0.430657 128:-0.563739 
-1 -0 1 1 1 1 1 10:-0.328467 128:-0.620397 
-1 -1 1 1 1 1 1 10:-0.328467 128:-0.376771 
-0 -1 1 1 1 1 1 10:-0.124088 128:-0.399433 
-0 -0 1 0 1 1 1 10:0.0510949 128:-0.495751 
-0 -1 0 1 1 1 1 10:0.080292 128:-0.308782 
-1 -0 1 1 1 1 0 10:-0.562044 128:-0.790368 
-0 -1 0 1 1 1 1 10:0.211679 128:0.00283286 
-0 -1 1 1 1 1 1 10:-0.328467 128:-0.240793 
-0 -1 1 1 1 1 1 10:-0.0656934 128:-0.399433 
-1 -1 1 1 1 1 1 10:-0.649635 128:-0.694051 
-1 -0 1 1 0 1 0 10:-0.678832 128:-0.84136 
-0 -1 1 1 1 1 1 10:-0.124088 128:-0.416431 
-1 -1 -1 1 1 1 1 10:-0.430657 128:-0.450425 
-1 -0 -1 1 0 1 0 10:-0.941606 128:-0.898017 
-1 -1 -1 1 0 1 1 10:-0.941606 128:-0.864023 
-0 -1 -1 1 1 1 1 10:-0.576642 128:-0.835694 
-0 -1 -1 1 1 1 1 10:-0.357664 128:-0.677054 
-0 -1 -1 1 1 1 1 10:-0.562044 128:-0.694051 
-1 -1 -1 1 1 1 1 10:-0.0364964 128:-0.133144 
-1 -1 -1 1 0 1 1 10:-0.941606 128:-0.864023 
-1 -1 -1 1 1 1 1 10:-0.766423 128:-0.648725 
-0 -1 -1 1 1 1 1 10:-0.182482 128:-0.484419 
-1 -1 -1 1 1 1 1 10:-0.810219 128:-0.909348 
-0 -0 -1 1 0 1 0 10:-0.89781 128:-0.983003 
-1 -1 -1 1 1 1 1 10:-0.620438 128:-0.750708 
-0 -0 -1 0 0 1 0 10:-0.985401 128:-0.92068 
-1 -1 -1 1 0 1 0 10:-0.883212 128:-0.926346 
-1 -1 -1 1 1 1 1 10:-0.824818 128:-0.84136 
-0 -1 -1 1 1 1 1 10:-0.109489 128:-0.609065 
-0 -0 -0 0 0 1 0 10:-1 128:-1 
-1 -1 -1 1 1 1 1 10:-0.649635 128:-0.716714 
-1 -1 -1 1 1 1 1 10:-0.635036 128:-0.756374 
-1 -1 -1 1 1 1 1 10:-0.591241 128:-0.847025 
-1 -1 -1 1 1 1 1 10:-0.649635 128:-0.626062 
-1 -1 -1 1 1 1 1 10:-0.824818 128:-0.824363 
-1 -1 -1 1 1 1 1 10:-0.313869 128:-0.450425 
-1 -1 -1 1 1 1 1 10:-0.474453 128:-0.767705 
-1 -1 -1 1 1 1 1 10:-0.664234 128:-0.767705 
-1 -1 -1 1 1 1 1 10:-0.89781 128:-0.88102 
-0 -1 -1 1 1 1 1 10:-0.386861 128:-0.643059 
-1 -1 -1 1 1 1 1 10:-0.722628 128:-0.756374 
-1 -1 -1 1 1 1 1 10:-0.737226 128:-0.767705 
-1 -1 -1 1 1 1 1 10:-0.722628 128:-0.637394 
-1 -1 -1 1 0 1 0 10:-0.868613 128:-0.943343 
-1 -1 -1 1 1 1 1 10:-0.868613 128:-0.563739 
-0 -0 -1 0 0 1 0 10:-0.956204 128:-0.966006 
-1 -1 -1 1 1 1 1 10:-0.664234 128:-0.72238 
-1 -1 -1 1 1 1 1 10:-0.708029 128:-0.847025 
-1 -1 -1 1 0 1 0 10:-0.883212 128:-0.926346 
-1 -1 -1 1 1 1 1 10:-0.824818 128:-0.926346 
-0 -1 -1 1 1 1 1 10:-0.270073 128:-0.694051 
-1 -1 -1 1 1 1 1 10:-0.50365 128:-0.558074 
-1 -1 -1 1 1 1 1 10:-0.824818 128:-0.750708 
-0 -1 -1 1 1 1 1 10:-0.153285 128:-0.699717 
-1 -1 -1 1 1 1 1 10:-0.518248 128:-0.665722 
-0 -0 -1 0 0 1 0 10:-0.956204 128:-0.983003 
-1 -1 -1 1 1 1 1 10:-0.50365 128:-0.609065 
-1 -1 -1 1 1 1 1 10:-0.40146 128:-0.597734 
-1 -1 -1 1 1 1 1 10:-0.518248 128:-0.512748 
-1 -1 -1 1 1 1 1 10:-0.576642 128:-0.716714 
-1 -1 -1 1 1 1 1 10:-0.883212 128:-0.796034 
-0 -1 -1 1 1 1 1 10:-0.459854 128:-0.592068 
-1 -1 -1 1 1 1 1 10:-0.89781 128:-0.790368 
-1 -1 -1 1 1 1 1 10:-0.649635 128:-0.705382 
-0 -1 -1 1 1 1 1 10:-0.605839 128:-0.699717 
-1 -1 -1 1 0 1 1 10:-0.810219 128:-0.96034 
-1 -1 -1 1 1 1 1 10:-0.89781 128:-0.88102 
-1 -1 -1 1 1 1 1 10:-0.737226 128:-0.790368 
-1 -1 -1 1 1 1 1 10:-0.635036 128:-0.68272 
-1 -1 -1 1 1 1 1 10:-0.722628 128:-0.626062 
-0 -1 -1 1 1 1 1 10:-0.620438 128:-0.8017 
-1 -1 -1 1 1 1 1 10:-0.430657 128:-0.575071 
-1 -1 -1 1 1 1 1 10:-0.547445 128:-0.750708 
-1 -1 -1 1 0 1 0 10:-0.970803 128:-0.847025 
-1 -1 -1 1 0 1 0.4575447256463401 10:-0.868613 128:-0.937677 
-1 -1 -1 1 1 1 1 10:-0.737226 128:-0.813031 
-1 -1 -1 1 1 1 1 10:-0.635036 128:-0.835694 
-1 -1 -1 1 1 1 1 10:-0.649635 128:-0.830028 
-0 -1 -1 1 1 1 1 10:-0.343066 128:-0.654391 
-1 -1 -1 1 1 1 1 10:-0.518248 128:-0.807365 
-1 -1 -1 1 1 1 1 10:-0.824818 128:-0.869688 
-1 -0 -1 1 0 1 0 10:-0.912409 128:-0.943343 
-1 -1 -1 1 1 1 1 10:-0.810219 128:-0.898017 
-1 -1 -1 1 1 1 1 10:-0.605839 128:-0.660057 
-0 -0 -1 1 0 1 0 10:-0.941606 128:-0.954674 
-1 -1 -1 1 1 1 1 10:-0.29927 128:-0.518414 
-1 -1 -1 1 1 1 1 10:-0.678832 128:-0.76204 
-1 -1 -1 1 0 1 1 10:-0.854015 128:-0.92068 
-0 -0 -1 1 0 1 0 10:-0.912409 128:-0.966006 
-1 -1 -1 1 1 1 1 10:-0.518248 128:-0.563739 
-1 -1 -1 1 0 1 1 10:-0.854015 128:-0.92068 
-0 -1 -1 1 1 1 1 10:-0.576642 128:-0.767705 
-1 -1 -1 1 1 1 1 10:-0.708029 128:-0.858357 
-1 -1 -1 1 1 1 1 10:-0.824818 128:-0.943343 
-1 -1 -1 1 1 1 1 10:-0.664234 128:-0.745042 
-1 -1 -1 1 1 1 1 10:-0.620438 128:-0.875354 
-0 -1 -1 1 1 1 1 10:-0.416058 128:-0.631728 
-1 -1 -1 1 1 1 1 10:-0.751825 128:-0.886686 
-0 -1 -1 1 1 1 1 10:-0.19708 128:-0.490085 
-1 -1 -1 1 1 1 1 10:-0.868613 128:-0.84136 
-1 -1 -1 1 1 1 1 10:-0.693431 128:-0.858357 
-1 -1 -1 1 1 1 1 10:-0.824818 128:-0.869688 
-1 -0 -1 1 0 1 0 10:-0.956204 128:-0.92068 
-1 -1 -1 1 1 1 1 10:-0.722628 128:-0.694051 
-1 -1 -1 1 1 1 1 10:-0.854015 128:-0.869688 
-1 -1 -1 1 1 1 1 10:-0.79562 128:-0.807365 
-1 -1 -1 1 1 1 1 10:-0.839416 128:-0.92068 
-1 -1 -1 1 1 1 1 10:-0.868613 128:-0.869688 
-0 -1 -1 1 1 1 1 10:-0.445255 128:-0.796034 
-1 -1 -1 1 1 1 1 10:-0.562044 128:-0.847025 
-1 -1 -1 1 1 1 1 10:-0.868613 128:-0.807365 
-0 -1 -1 1 1 1 1 10:-0.284672 128:-0.620397 
-1 -1 -1 1 1 1 1 10:-0.810219 128:-0.830028 
-1 -1 -1 1 1 1 1 10:-0.737226 128:-0.739377 
-1 -1 -1 1 0 1 1 10:-0.912409 128:-0.88102 
-1 -1 -1 1 1 1 1 10:-0.79562 128:-0.847025 
-1 -1 -1 1 1 1 1 10:-0.357664 128:-0.586402 
-1 -1 -1 1 1 1 1 10:-0.664234 128:-0.631728 
-0 -0 -1 1 0 1 0 10:-0.927007 128:-0.96034 
-0 -0 -1 0 0 1 0 10:-1 128:-0.96034 
-1 -1 -1 1 1 1 1 10:-0.810219 128:-0.643059 
-1 -1 -1 1 1 1 1 10:-0.766423 128:-0.943343 
-1 -1 -1 1 1 1 1 10:-0.824818 128:-0.937677 
-1 -1 -1 1 1 1 1 10:-0.854015 128:-0.8017 
-1 -1 -1 1 1 1 1 10:-0.343066 128:-0.433428 
-1 -1 -1 1 1 1 1 10:-0.635036 128:-0.756374 
-1 -1 -1 1 1 1 1 10:-0.708029 128:-0.779037 
-0 -0 -1 1 0 1 0 10:-0.927007 128:-0.954674 
-0 -0 -1 1 0 1 0 10:-0.927007 128:-0.943343 
-1 -1 -1 1 1 1 1 10:-0.912409 128:-0.779037 
-0 -0 -1 0 0 1 0 10:-0.970803 128:-1 
-1 -1 -1 1 1 1 1 10:-0.649635 128:-0.835694 
-1 -1 -1 1 1 1 1 10:-0.79562 128:-0.76204 
-1 -1 -1 1 0 1 1 10:-0.89781 128:-0.886686 
-1 -1 -1 1 1 1 1 10:-0.313869 128:-0.365439 
-1 -1 -1 1 1 1 1 10:-0.547445 128:-0.779037 
-0 -1 -1 1 1 1 1 10:-0.591241 128:-0.830028 
-1 -1 -1 1 0 1 1 10:-0.868613 128:-0.932011 
-1 -1 -1 1 1 1 1 10:-0.79562 128:-0.796034 
-0 -1 -1 1 1 1 1 10:-0.372263 128:-0.637394 
-1 -1 -1 1 1 1 1 10:-0.854015 128:-0.688385 
-1 -0 -1 1 0 1 0 10:-1 128:-0.886686 
-1 -1 -1 1 1 1 1 10:-0.591241 128:-0.569405 
-0 -0 -1 0 0 1 0 10:-0.927007 128:-0.988669 
-0 -0 -1 1 0 1 0 10:-0.883212 128:-0.96034 
-1 -1 -1 1 1 1 1 10:-0.313869 128:-0.393768 
-1 -1 -1 1 1 1 1 10:-0.547445 128:-0.660057 
-1 -1 -1 1 1 1 1 10:-0.445255 128:-0.614731 
-1 -1 -1 1 1 1 1 10:-0.518248 128:-0.660057 
-1 -1 -1 1 1 1 1 10:-0.489051 128:-0.490085 
-0 -1 -1 1 1 1 1 10:-0.372263 128:-0.728045 
-0 -1 -1 1 1 1 1 10:-0.124088 128:-0.484419 
-0 -0 -1 1 0 1 0 10:-0.912409 128:-0.949008 
-1 -1 -1 1 1 1 1 10:-0.532847 128:-0.665722 
-0 -0 -1 1 0 1 0 10:-0.912409 128:-0.949008 
-1 -1 -1 1 1 1 1 10:-0.518248 128:-0.484419 
-1 -1 -1 1 1 1 1 10:-0.605839 128:-0.688385 
-0 -1 -1 1 1 1 1 10:0.0510949 128:-0.586402 
-1 -1 -1 1 1 1 1 10:-0.693431 128:-0.614731 
-0 -1 -1 1 1 1 1 10:-0.459854 128:-0.614731 
-0 -1 -1 1 1 1 1 10:-0.591241 128:-0.648725 
-0 -0 -1 0 0 1 0 10:-0.985401 128:-0.971671 
-0 -1 -1 1 1 1 1 10:-0.430657 128:-0.739377 
-0 -1 -1 1 1 1 1 10:-0.620438 128:-0.807365 
-1 -1 -1 1 1 1 1 10:-0.854015 128:-0.813031 
-1 -1 -1 1 1 1 1 10:-0.518248 128:-0.660057 
-1 -1 -1 1 1 1 1 10:-0.664234 128:-0.739377 
-1 -1 -1 1 1 1 1 10:-0.722628 128:-0.773371 
-0 -0 -0 0 0 1 0 10:-1 128:-0.994334 
-1 -0 -1 1 0 1 0 10:-0.89781 128:-0.943343 
-1 -1 -1 1 1 1 1 10:-0.649635 128:-0.790368 
-1 -1 -1 1 1 1 1 10:-0.781022 128:-0.892351 
-1 -1 -1 1 1 1 1 10:-0.781022 128:-0.830028 
-1 -1 -1 1 1 1 1 10:-0.824818 128:-0.824363 
-0 -1 -1 1 1 1 1 10:-0.386861 128:-0.705382 
-0 -0 -1 0 0 1 0 10:-0.985401 128:-0.943343 
-1 -0 -1 1 0 1 0 10:-0.839416 128:-0.966006 
-1 -1 -1 1 1 1 1 10:-0.766423 128:-0.864023 
-0 -1 -1 1 1 1 1 10:-0.620438 128:-0.728045 
-1 -1 -1 1 1 1 1 10:-0.737226 128:-0.852691 
-1 -1 -1 1 1 1 1 10:-0.474453 128:-0.665722 
-1 -0 -1 1 0 1 0 10:-0.89781 128:-0.926346 
-1 -1 -1 1 1 1 1 10:-0.678832 128:-0.909348 
-1 -1 -1 1 1 1 1 10:-0.810219 128:-0.943343 
-0 -1 -1 1 1 1 1 10:-0.357664 128:-0.68272 
-1 -1 -1 1 1 1 1 10:-0.751825 128:-0.875354 
-1 -1 -1 1 0 1 1 10:-0.868613 128:-0.915014 
-0 -0 -1 0 0 1 0 10:-1 128:-0.949008 
-1 -1 -1 1 1 1 1 10:-0.868613 128:-0.898017 
-1 -1 -1 1 1 1 1 10:-0.547445 128:-0.648725 
-0 -1 -1 1 1 1 1 10:-0.459854 128:-0.609065 
-0 -1 -1 1 1 1 1 10:-0.591241 128:-0.665722 
-0 -0 -1 0 0 1 0 10:-0.985401 128:-0.966006 
-0 -1 -1 1 1 1 1 10:-0.605839 128:-0.711048 
-1 -1 -1 1 1 1 1 10:-0.445255 128:-0.648725 
-1 -1 -1 1 1 1 1 10:-0.357664 128:-0.563739 
-1 -0 -1 1 0 1 0 10:-0.912409 128:-0.977337 
-1 -1 -1 1 1 1 1 10:-0.883212 128:-0.892351 
-0 -0 -0 0 0 1 0 10:-1 128:-0.994334 
-0 -1 -1 1 1 1 1 10:-0.343066 128:-0.626062 
-0 -1 -1 1 1 1 1 10:-0.605839 128:-0.580737 
-1 -1 -1 1 1 1 1 10:-0.781022 128:-0.739377 
-1 -1 -1 1 1 1 1 10:-0.89781 128:-0.875354 
-1 -1 -1 1 1 1 1 10:-0.737226 128:-0.858357 
-1 -1 -1 1 1 1 1 10:-0.824818 128:-0.847025 
-0 -0 -1 0 0 1 0 10:-0.927007 128:-0.983003 
-0 -0 -1 1 0 1 0 10:-0.941606 128:-0.954674 
-1 -0 -1 1 0 1 0 10:-0.912409 128:-0.915014 
-1 -0 -1 1 0 1 0 10:-0.89781 128:-0.932011 
-0 -1 -1 1 1 1 1 10:-0.109489 128:-0.444759 
-1 -1 -1 1 1 1 1 10:-0.781022 128:-0.858357 
-1 -0 -1 1 0 1 0 10:-0.956204 128:-0.903683 
-0 -1 -1 1 1 1 1 10:-0.547445 128:-0.580737 
-1 -1 -1 1 1 1 1 10:-0.737226 128:-0.875354 
-0 -0 -1 1 0 1 0 10:-0.956204 128:-0.932011 
-1 -1 -1 1 1 1 1 10:-0.459854 128:-0.716714 
-1 -0 -1 1 0 1 0 10:-0.941606 128:-0.898017 
-1 -1 -1 1 1 1 1 10:-0.868613 128:-0.813031 
-0 -1 -1 1 1 1 1 10:-0.313869 128:-0.614731 
-1 -1 -1 1 1 1 1 10:-0.810219 128:-0.830028 
-1 -1 -1 1 1 1 1 10:-0.912409 128:-0.847025 
-1 -0 -1 1 0 1 0 10:-0.956204 128:-0.88102 
-1 -1 -1 1 1 1 1 10:-0.576642 128:-0.818697 
-1 -1 -1 1 1 1 1 10:-0.664234 128:-0.824363 
-1 -1 -1 1 0 1 1 10:-0.912409 128:-0.886686 
-1 -1 -1 1 1 1 1 10:-0.211679 128:-0.354108 
-0 -1 -1 1 1 1 1 10:-0.343066 128:-0.68272 
-1 -1 -1 1 1 1 1 10:-0.635036 128:-0.84136 
-0 -1 -1 1 1 1 1 10:-0.153285 128:-0.626062 
-1 -1 -1 1 1 1 1 10:-0.678832 128:-0.8017 
-1 -1 -1 1 0 1 1 10:-0.868613 128:-0.909348 
-1 -1 -1 1 1 1 1 10:-0.678832 128:-0.637394 
-1 -1 -1 1 0 1 1 10:-0.89781 128:-0.892351 
-1 -1 -1 1 1 1 1 10:-0.79562 128:-0.875354 
-0 -0 -1 1 0 1 0 10:-0.912409 128:-0.966006 
-1 -1 -1 1 1 1 1 10:-0.547445 128:-0.597734 
-0 -1 -1 1 1 1 1 10:-0.372263 128:-0.694051 
-0 -1 -1 1 1 1 1 10:-0.372263 128:-0.756374 
-0 -1 -1 1 1 1 1 10:-0.489051 128:-0.597734 
-0 -0 -1 0 0 1 0 10:-0.985401 128:-0.988669 
-0 -0 -1 0 0 1 0 10:-0.985401 128:-0.96034 
-1 -1 -1 1 1 1 1 10:-0.708029 128:-0.665722 
-1 -1 -1 1 1 1 1 10:-0.109489 128:-0.263456 
-1 -1 -1 1 1 1 1 10:-0.635036 128:-0.773371 
-1 -1 -1 1 0 1 1 10:-0.941606 128:-0.864023 
-1 -1 -1 1 1 1 1 10:-0.839416 128:-0.92068 
-0 -1 -1 1 1 1 1 10:-0.240876 128:-0.648725 
-1 -1 -1 1 1 1 1 10:-0.693431 128:-0.909348 
-0 -1 -1 1 1 1 1 10:-0.620438 128:-0.847025 
-1 -1 -1 1 1 1 1 10:-0.810219 128:-0.949008 
-0 -0 -1 1 0 1 0 10:-0.912409 128:-0.971671 
-0 -0 -1 0 0 1 0 10:-0.956204 128:-0.977337 
-1 -1 -1 1 0 1 1 10:-0.868613 128:-0.909348 
-1 -1 -1 1 1 1 1 10:-0.810219 128:-0.909348 
-1 -1 -1 1 1 1 1 10:-0.693431 128:-0.739377 
-0 -0 -1 1 0 1 0 10:-0.927007 128:-0.954674 
-0 -1 -1 1 1 1 1 10:-0.386861 128:-0.858357 
-1 -1 -1 1 1 1 1 10:-0.810219 128:-0.875354 
-1 -1 -1 1 1 1 1 10:-0.708029 128:-0.796034 
-0 -1 -1 1 1 1 1 10:-0.605839 128:-0.892351 
-0 -1 -1 1 1 1 1 10:-0.474453 128:-0.609065 
-0 -1 -1 1 1 1 1 10:-0.153285 128:-0.563739 
-1 -1 -1 1 1 1 1 10:-0.649635 128:-0.756374 
-1 -1 -1 1 1 1 1 10:-0.751825 128:-0.784703 
-1 -1 -1 1 1 1 1 10:-0.664234 128:-0.790368 
-0 -1 -1 1 1 1 1 10:-0.591241 128:-0.830028 
-0 -0 -1 1 0 1 0 10:-0.883212 128:-0.983003 
-1 -1 -1 1 1 1 1 10:-0.810219 128:-0.932011 
-0 -0 -1 0 0 1 0 10:-0.941606 128:-0.966006 
-1 -1 -1 1 1 1 1 10:-0.708029 128:-0.875354 
-1 -1 -1 1 1 1 1 10:-0.489051 128:-0.552408 
-1 -1 -1 1 1 1 1 10:-0.255474 128:-0.410765 
-0 -1 -1 1 1 1 1 10:-0.547445 128:-0.858357 
-1 -1 -1 1 1 1 1 10:-0.883212 128:-0.790368 
-1 -1 -1 1 1 1 1 10:-0.649635 128:-0.643059 
-1 -1 -1 1 1 1 1 10:-0.737226 128:-0.954674 
-1 -1 -1 1 1 1 1 10:-0.664234 128:-0.84136 
-1 -1 -1 1 1 1 1 10:-0.824818 128:-0.637394 
-1 -1 -1 1 1 1 1 10:-0.79562 128:-0.756374 
-0 -0 -1 1 0 1 0 10:-0.927007 128:-0.949008 
-1 -1 -1 1 1 1 1 10:-0.839416 128:-0.847025 
-0 -0 -1 0 0 1 0 10:-0.985401 128:-0.971671 
-1 -1 -1 1 0 1 1 10:-0.839416 128:-0.932011 
-1 -1 -1 1 1 1 1 10:-0.751825 128:-0.807365 
-1 -0 -1 1 0 1 0 10:-0.985401 128:-0.909348 
-0 -0 -1 0 0 1 0 10:-1 128:-0.96034 
-1 -1 -1 1 1 1 1 10:-0.766423 128:-0.807365 
-0 -1 -1 1 1 1 1 10:-0.109489 128:-0.512748 
-0 -0 -1 1 0 1 0 10:-0.927007 128:-0.971671 
-0 -0 -1 0 0 1 0 10:-0.970803 128:-0.954674 
-0 -0 -1 1 0 1 0 10:-0.912409 128:-0.949008 
-0 -0 -1 0 0 1 0 10:-1 128:-0.983003 
-1 -1 -1 1 1 1 1 10:-0.737226 128:-0.609065 
-1 -0 -1 1 0 1 0 10:-0.854015 128:-0.96034 
-1 -1 -1 1 1 1 1 10:-0.751825 128:-0.88102 
-1 -0 -1 1 0 1 0 10:-0.956204 128:-0.892351 
-1 -1 -1 1 1 1 1 10:-0.810219 128:-0.818697 
-1 -1 -1 1 1 1 1 10:-0.912409 128:-0.847025 
-0 -1 -1 1 1 1 1 10:-0.576642 128:-0.790368 
-1 -0 -1 -1 1 1 1 10:-0.459854 128:-0.694051 
-1 -0 -1 -1 0 1 0 10:-0.854015 128:-0.903683 
-1 -1 -1 -1 1 1 1 10:-0.50365 128:-0.603399 
-1 -1 -1 -1 1 1 1 10:-0.240876 128:-0.597734 
-1 -1 -1 -1 1 1 1 10:-0.576642 128:-0.291785 
-1 -1 -1 -1 1 1 1 10:-0.547445 128:-0.529745 
-1 -0 -1 -1 0 1 0 10:-0.927007 128:-0.932011 
-1 -0 -1 -1 0 1 0 10:-0.839416 128:-0.92068 
-1 -0 -1 -1 1 1 1 10:-0.591241 128:-0.824363 
-0 -1 -1 -0 1 1 1 10:0.40146 128:-0.17847 
-1 -1 -1 -1 1 1 1 10:-0.459854 128:-0.450425 
-1 -1 -1 -1 1 1 1 10:-0.722628 128:-0.665722 
-1 -1 -1 -1 1 1 1 10:-0.430657 128:-0.614731 
-1 -1 -1 -1 1 1 1 10:-0.40146 128:-0.620397 
-1 -1 -1 -1 1 1 1 10:-0.284672 128:-0.456091 
-0 -1 -1 -0 1 1 1 10:-0.080292 128:0.33711 
-1 -1 -1 -1 1 1 1 10:-0.357664 128:-0.461756 
-1 -1 -1 -1 1 1 1 10:-0.532847 128:-0.575071 
-1 -0 -1 -1 1 1 0 10:-0.839416 128:-0.830028 
-0 -1 -1 -1 1 1 1 10:-0.240876 128:-0.269122 
-0 -1 -1 -1 1 1 1 10:-0.167883 128:-0.308782 
-1 -0 -1 -1 1 1 1 10:-0.635036 128:-0.76204 
-0 -1 -1 -1 1 1 1 10:-0.255474 128:-0.223796 
-0 -1 -1 -1 1 1 1 10:-0.313869 128:-0.416431 
-1 -1 -1 -1 1 1 1 10:-0.40146 128:-0.631728 
-1 -0 -1 -1 1 1 1 10:-0.211679 128:-0.790368 
-0 -1 -1 -1 1 1 1 10:-0.080292 128:-0.286119 
-1 -1 -1 -1 1 1 1 10:-0.605839 128:-0.529745 
-1 -1 -1 -1 1 1 1 10:-0.79562 128:-0.620397 
-1 -0 -1 -1 1 1 1 10:-0.19708 128:-0.586402 
-1 -1 -1 -1 1 1 1 10:-0.810219 128:-0.376771 
-1 -1 -1 -1 1 1 1 10:-0.605839 128:-0.637394 
-1 -1 -1 -1 1 1 1 10:-0.664234 128:-0.150142 
-0 -0 -1 -1 1 1 1 10:0.255474 128:-0.456091 
-0 -1 -1 -1 1 1 1 10:-0.167883 128:-0.467422 
-0 -1 -1 -1 1 1 1 10:0.0510949 128:-0.127479 
-1 -1 -1 -1 1 1 1 10:-0.635036 128:-0.620397 
-1 -1 -1 -1 1 1 0 10:-0.766423 128:-0.790368 
-1 -0 -1 -1 1 1 1 10:-0.343066 128:-0.654391 
-1 -1 -1 -1 1 1 1 10:-0.547445 128:-0.716714 
-1 -1 -1 -1 1 1 1 10:-0.576642 128:-0.444759 
-0 -1 -1 -1 1 1 1 10:-0.167883 128:-0.269122 
-1 -1 -1 -1 1 1 1 10:-0.722628 128:-0.711048 
-1 -1 -1 -1 1 1 1 10:-0.562044 128:-0.586402 
-1 -1 -1 -1 1 1 1 10:-0.562044 128:-0.705382 
-1 -1 -1 -1 1 1 1 10:-0.532847 128:-0.529745 
-1 -1 -1 -1 1 1 1 10:-0.649635 128:-0.0594901 
-0 -1 -1 -0 1 1 1 10:0.00729927 128:0.195467 
-1 -1 -1 -1 1 1 1 10:-0.489051 128:-0.575071 
-1 -1 -1 -1 1 1 1 10:-0.445255 128:-0.569405 
-1 -1 -1 -1 1 1 1 10:-0.255474 128:-0.558074 
-0 -1 -1 -0 1 1 1 10:0.0948905 128:1 
-0 -1 -1 -1 1 1 1 10:-0.284672 128:-0.172805 
-1 -1 -1 -1 1 1 1 10:-0.474453 128:-0.677054 
-1 -1 -1 -1 1 1 1 10:-0.40146 128:-0.501416 
-1 -1 -1 -1 1 1 1 10:-0.270073 128:-0.512748 
-1 -0 -1 -1 0 1 0 10:-0.927007 128:-0.932011 
-0 -1 -1 -1 1 1 1 10:-0.255474 128:-0.325779 
-1 -0 -1 -1 1 1 1 10:-0.372263 128:-0.68272 
-1 -0 -1 -1 1 1 1 10:-0.489051 128:-0.705382 
-0 -1 -1 -1 1 1 1 10:0.0364964 128:-0.348442 
-0 -1 -1 -1 1 1 1 10:-0.0218978 128:-0.286119 
-1 -1 -1 -1 1 1 1 10:-0.518248 128:-0.541076 
-1 -1 -1 -1 1 1 1 10:-0.489051 128:-0.478754 
-1 -1 -1 -1 1 1 1 10:-0.416058 128:-0.427762 
-0 -1 -1 -1 1 1 1 10:-0.255474 128:-0.399433 
-0 -1 -1 -1 1 1 1 10:-0.0656934 128:-0.172805 
-1 -0 -1 -1 1 1 1 10:-0.313869 128:-0.688385 
-1 -1 -1 -1 1 1 1 10:-0.445255 128:-0.529745 
-1 -0 -1 -1 0 1 0 10:-0.824818 128:-0.909348 
-0 -1 -1 -1 1 1 1 10:0.109489 128:-0.0254958 
-0 -1 -1 -1 1 1 1 10:-0.167883 128:-0.184136 
-1 -1 -1 -1 1 1 1 10:-0.591241 128:-0.535411 
-0 -1 -1 -1 1 1 1 10:-0.109489 128:-0.507082 
-1 -1 -1 -1 1 1 1 10:-0.532847 128:-0.654391 
-0 -1 -1 -1 1 1 1 10:0.0364964 128:-0.229462 
-1 -0 -1 -1 1 1 0 10:-0.664234 128:-0.790368 
-1 -1 -1 -1 1 1 0 10:-0.693431 128:-0.76204 
-0 -1 -1 -1 1 1 1 10:-0.0948905 128:-0.354108 
-0 -1 -1 -1 1 1 1 10:-0.167883 128:-0.388102 
-0 -0 -1 -1 1 1 1 10:0.226277 128:-0.580737 
-0 -1 -1 -1 1 1 1 10:-0.313869 128:-0.354108 
-1 -1 -1 -1 1 1 1 10:-0.605839 128:-0.620397 
-1 -0 -1 -1 1 1 0 10:-0.664234 128:-0.852691 
-1 -1 -1 -1 1 1 1 10:-0.284672 128:-0.501416 
-0 -1 -1 -1 1 1 1 10:0.153285 128:-0.252125 
-1 -0 -1 -1 1 1 0 10:-0.635036 128:-0.84136 
-0 -1 -1 -1 1 1 1 10:-0.255474 128:-0.359773 
-1 -1 -1 -1 1 1 1 10:-0.722628 128:-0.72238 
-0 -1 -1 -1 1 1 1 10:-0.153285 128:-0.541076 
-1 -0 -1 -1 1 1 1 10:-0.138686 128:-0.626062 
-1 -0 -1 -1 1 1 1 10:-0.605839 128:-0.779037 
-1 -1 -1 -1 1 1 1 10:-0.605839 128:-0.728045 
-0 -1 -1 -1 1 1 1 10:-0.0218978 128:-0.331445 
-1 -1 -1 -1 1 1 1 10:-0.576642 128:-0.688385 
-1 -1 -1 -1 1 1 1 10:-0.416058 128:-0.620397 
-1 -1 -1 -1 1 1 1 10:-0.591241 128:-0.654391 
-1 -1 -1 -1 1 1 1 10:-0.459854 128:-0.541076 
-1 -1 -1 -1 1 1 1 10:-0.445255 128:-0.518414 
-1 -1 -1 -1 1 1 1 10:-0.357664 128:-0.614731 
-1 -1 -1 -1 1 1 1 10:-0.576642 128:-0.518414 
-0 -1 -1 -1 1 1 1 10:-0.240876 128:-0.422096 
-1 -1 -1 -1 1 1 1 10:-0.416058 128:-0.597734 
-1 -1 -1 -1 1 1 1 10:-0.678832 128:-0.654391 
-0 -1 -1 -1 1 1 1 10:-0.109489 128:-0.0368272 
-1 -1 -1 -1 1 1 1 10:-0.474453 128:-0.507082 
-0 -1 -1 -1 1 1 1 10:0.0218978 128:-0.172805 
-1 -1 -1 -1 1 1 1 10:-0.313869 128:-0.609065 
-1 -1 -1 -1 1 1 1 10:-0.372263 128:-0.427762 
-1 -1 -1 -1 1 1 1 10:-0.386861 128:-0.490085 
-0 -1 -1 -0 1 1 1 10:-0.167883 128:0.501416 
-0 -1 -1 -1 1 1 1 10:-0.29927 128:-0.01983 
-1 -1 -1 -1 1 1 1 10:-0.708029 128:-0.422096 
-0 -1 -1 -1 1 1 1 10:0.328467 128:-0.314448 
-1 -1 -1 -1 1 1 1 10:-0.416058 128:-0.314448 
-0 -1 -1 -1 1 1 1 10:-0.109489 128:-0.444759 
-0 -1 -1 -1 1 1 1 10:-0.328467 128:-0.331445 
-0 -1 -1 -1 1 1 1 10:-0.153285 128:-0.229462 
-1 -0 -1 -1 0 1 0 10:-0.927007 128:-0.864023 
-1 -1 -1 -1 1 1 1 10:-0.532847 128:-0.603399 
-1 -1 -1 -1 1 1 1 10:-0.547445 128:-0.371105 
-1 -1 -1 -1 1 1 1 10:-0.489051 128:-0.671388 
-0 -1 -1 -1 1 1 1 10:-0.357664 128:-0.365439 
-1 -0 -1 -1 1 1 0 10:-0.620438 128:-0.847025 
-1 -1 -1 -1 1 1 1 10:-0.416058 128:-0.580737 
-1 -1 -1 -1 1 1 1 10:-0.40146 128:-0.586402 
-1 -1 -1 -1 1 1 1 10:-0.40146 128:-0.439093 
-1 -1 -1 -1 1 1 1 10:-0.678832 128:-0.699717 
-1 -0 -1 -1 1 1 1 10:-0.182482 128:-0.609065 
-1 -1 -1 -1 1 1 1 10:-0.532847 128:-0.535411 
-1 -1 -1 -1 1 1 1 10:-0.50365 128:-0.501416 
-0 -1 -1 -1 1 1 1 10:-0.255474 128:-0.410765 
-1 -1 -1 -1 1 1 1 10:-0.357664 128:-0.575071 
-1 -0 -1 -1 1 1 1 10:-0.240876 128:-0.603399 
-1 -1 -1 -1 1 1 1 10:-0.562044 128:-0.433428 
-1 -1 -1 -1 1 1 1 10:-0.270073 128:-0.552408 
-1 -1 -1 -1 1 1 1 10:-0.649635 128:-0.133144 
-0 -1 -1 -1 1 1 1 10:0.138686 128:-0.0991501 
-1 -1 -1 -1 1 1 1 10:-0.781022 128:-0.592068 
-1 -1 -1 -1 1 1 1 10:-0.313869 128:-0.529745 
-0 -0 -1 -1 1 1 1 10:0.080292 128:-0.467422 
-1 -1 -1 -1 1 1 0 10:-0.912409 128:-0.773371 
-0 -1 -1 -1 1 1 1 10:0.255474 128:-0.342776 
-1 -1 -1 -1 1 1 1 10:-0.50365 128:-0.524079 
-0 -1 -1 -1 1 1 1 10:-0.313869 128:-0.325779 
-1 -1 -1 -1 1 1 1 10:-0.343066 128:-0.626062 
-1 -0 -1 -1 1 1 1 10:-0.605839 128:-0.784703 
-1 -1 -1 -1 1 1 1 10:-0.664234 128:-0.654391 
-1 -0 -1 -1 1 1 1 10:-0.386861 128:-0.68272 
-1 -1 -1 -1 1 1 1 10:-0.620438 128:-0.705382 
-1 -1 -1 -1 1 1 1 10:-0.459854 128:-0.552408 
-1 -1 -1 -1 1 1 0 10:-0.737226 128:-0.72238 
-1 -0 -1 -1 1 1 1 10:-0.649635 128:-0.773371 
-0 -1 -1 -0 1 1 1 10:0.0656934 128:0.0934844 
-1 -1 -1 -1 1 1 1 10:-0.416058 128:-0.660057 
-1 -1 -1 -1 1 1 1 10:-0.357664 128:-0.473088 
-1 -1 -1 -1 1 1 0 10:-0.751825 128:-0.745042 
-0 -1 -1 -1 1 1 1 10:-0.167883 128:-0.223796 
-1 -1 -1 -1 1 1 1 10:-0.620438 128:-0.745042 
-1 -1 -1 -1 1 1 1 10:-0.416058 128:-0.490085 
-1 -1 -1 -1 1 1 1 10:-0.766423 128:-0.648725 
-0 -1 -1 -1 1 1 1 10:-0.226277 128:-0.422096 
-0 -1 -1 -0 1 1 1 10:0.313869 128:-0.0708215 
-0 -1 -1 -1 1 1 1 10:-0.211679 128:-0.518414 
-1 -1 -1 -1 1 1 1 10:-0.489051 128:-0.529745 
-0 -1 -1 -0 1 1 1 10:0.255474 128:0.314448 
-0 -1 -1 -0 1 1 1 10:0.824818 128:0.184136 
-0 -1 -1 -0 1 1 1 10:0.0364964 128:0.303116 
-1 -0 -1 -1 1 1 0 10:-0.635036 128:-0.8017 
-1 -1 -1 -1 1 1 1 10:-0.518248 128:-0.637394 
-1 -1 -1 -1 1 1 1 10:-0.343066 128:-0.444759 
-1 -1 -1 -1 1 1 1 10:-0.605839 128:-0.648725 
-0 -1 -1 -1 1 1 1 10:-0.153285 128:-0.405099 
-1 -1 -1 -1 1 1 0 10:-0.79562 128:-0.796034 
-1 -1 -1 -1 1 1 1 10:-0.29927 128:-0.541076 
-1 -0 -1 -1 1 1 0 10:-0.664234 128:-0.875354 
-0 -1 -1 -1 1 1 1 10:0.00729927 128:-0.0934844 
-0 -1 -1 -1 1 1 1 10:-0.562044 128:-0.00283286 
-1 -1 -1 -1 1 1 1 10:-0.605839 128:-0.694051 
-1 -0 -1 -1 0 1 0 10:-0.839416 128:-0.909348 
-1 -1 -1 -1 1 1 1 10:-0.562044 128:-0.580737 
-1 -1 -1 -1 1 1 0 10:-0.678832 128:-0.76204 
-0 -1 -1 -1 1 1 1 10:-0.00729927 128:-0.371105 
-0 -1 -1 -1 1 1 1 10:-0.00729927 128:-0.189802 
-1 -1 -1 -1 1 1 1 10:-0.474453 128:-0.399433 
-1 -1 -1 -1 1 1 1 10:-0.29927 128:-0.552408 
-1 -1 -1 -1 1 1 1 10:-0.416058 128:-0.524079 
-0 -1 -1 -1 1 1 1 10:0.167883 128:-0.235127 
-1 -1 -1 -1 1 1 1 10:-0.445255 128:-0.620397 
-0 -1 -1 -0 1 1 1 10:0.153285 128:0.104816 
-1 -0 -1 -1 1 1 1 10:-0.270073 128:-0.756374 
-1 -1 -1 -1 1 1 1 10:-0.766423 128:-0.665722 
-1 -1 -1 -1 1 1 1 10:-0.664234 128:-0.716714 
-0 -1 -1 -1 1 1 1 10:-0.328467 128:-0.195467 
-1 -1 -1 -1 1 1 1 10:-0.445255 128:-0.456091 
-1 -1 -1 -1 1 1 1 10:-0.270073 128:-0.529745 
-1 -1 -1 -1 1 1 0 10:-0.781022 128:-0.699717 
-1 -1 -1 -1 1 1 1 10:-0.430657 128:-0.580737 
-1 -0 -1 -1 0 1 0 10:-0.89781 128:-0.858357 
-1 -0 -1 -1 1 1 0 10:-0.605839 128:-0.830028 
-0 -1 -1 -1 1 1 1 10:-0.255474 128:-0.484419 
-1 -1 -1 -1 1 1 1 10:-0.576642 128:-0.167139 
-1 -1 -1 -1 1 1 1 10:-0.430657 128:-0.541076 
-0 -1 -1 -0 1 1 1 10:1 128:0.0368272 
-1 -1 -1 -1 1 1 1 10:-0.722628 128:-0.467422 
-1 -0 -1 -1 1 1 0 10:-0.708029 128:-0.779037 
-1 -1 -1 -1 1 1 1 10:-0.605839 128:-0.728045 
-1 -0 -1 -1 1 1 0 10:-0.649635 128:-0.847025 
-1 -1 -1 -1 1 1 1 10:-0.635036 128:-0.643059 
-0 -1 -1 -1 1 1 1 10:-0.167883 128:-0.478754 
-1 -1 -1 -1 1 1 1 10:-0.489051 128:-0.416431 
-0 -1 -1 -1 1 1 1 10:-0.19708 128:-0.433428 
-1 -1 -1 -1 1 1 1 10:-0.722628 128:-0.575071 
-1 -1 -1 -1 1 1 1 10:-0.416058 128:-0.580737 
-1 -0 -1 -1 0 1 0 10:-0.89781 128:-0.852691 
-1 -0 -1 -1 1 1 1 10:-0.50365 128:-0.767705 
-1 -1 -1 -1 1 1 1 10:-0.591241 128:-0.694051 
-0 -1 -1 -1 1 1 1 10:-0.182482 128:-0.490085 
-0 -1 -1 -1 1 1 1 10:-0.313869 128:-0.25779 
-1 -1 -1 -1 1 1 1 10:-0.678832 128:-0.626062 
-1 -1 -1 -1 1 1 1 10:-0.489051 128:-0.495751 
-1 -0 -1 -1 1 1 0 10:-0.664234 128:-0.869688 
-1 -1 -1 -1 1 1 1 10:-0.547445 128:-0.399433 
-0 -1 -1 -1 1 1 1 10:-0.19708 128:-0.416431 
-1 -0 -1 -1 1 1 0 10:-0.737226 128:-0.790368 
-1 -1 -1 -1 1 1 1 10:-0.722628 128:-0.331445 
-1 -0 -1 -1 0 1 0 10:-0.824818 128:-0.898017 
-0 -1 -1 -0 1 1 1 10:0.211679 128:-0.0708215 
-1 -1 -1 -1 1 1 1 10:-0.372263 128:-0.495751 
-0 -1 -1 -1 1 1 1 10:-0.153285 128:-0.116147 
-1 -1 -1 -1 1 1 1 10:-0.270073 128:-0.507082 
-1 -1 -1 -1 1 1 1 10:-0.445255 128:-0.631728 
-1 -1 -1 -1 1 1 1 10:-0.343066 128:-0.529745 
-1 -1 -1 -1 1 1 1 10:-0.430657 128:-0.478754 
-0 -1 -1 -1 1 1 1 10:-0.372263 128:-0.33711 
-0 -1 -1 -0 1 1 1 10:0.489051 128:-0.263456 
-1 -1 -1 -1 1 1 1 10:-0.343066 128:-0.467422 
-0 -1 -1 -1 1 1 1 10:0.124088 128:-0.314448 
-1 -0 -1 -1 1 1 1 10:-0.532847 128:-0.76204 
-1 -1 -1 -1 1 1 1 10:-0.459854 128:-0.501416 
-0 -1 -1 -0 1 1 1 10:-0.313869 128:0.580737 
-0 -1 -1 -1 1 1 1 10:-0.153285 128:-0.184136 
-0 -1 -1 -1 1 1 1 10:-0.167883 128:0.116147 
-1 -1 -1 -1 1 1 1 10:-0.372263 128:-0.546742 
-1 -1 -1 -1 1 1 1 10:-0.416058 128:-0.575071 
-1 -1 -1 -1 1 1 1 10:-0.678832 128:-0.750708 
-1 -1 -1 -1 1 1 1 10:-0.313869 128:-0.620397 
-1 -1 -1 -1 1 1 1 10:-0.416058 128:-0.546742 
-1 -0 -1 -1 1 1 1 10:-0.240876 128:-0.631728 
-1 -1 -1 -1 1 1 1 10:-0.50365 128:-0.342776 
-1 -1 -1 -1 1 1 1 10:-0.416058 128:-0.569405 
-0 -1 -1 -1 1 1 1 10:-0.29927 128:-0.405099 
-0 -1 -1 -1 1 1 1 10:-0.109489 128:-0.535411 
-0 -1 -1 -1 1 1 1 10:-0.211679 128:-0.399433 
-1 -1 -1 -1 1 1 1 10:-0.708029 128:-0.620397 
-1 -0 -1 -1 1 1 1 10:-0.474453 128:-0.733711 
-1 -1 -1 -1 1 1 1 10:-0.386861 128:-0.614731 
-1 -1 -1 -1 1 1 1 10:-0.547445 128:-0.263456 
-0 -1 -1 -1 1 1 1 10:0.0364964 128:-0.393768 
-1 -1 -1 -1 1 1 1 10:-0.459854 128:-0.478754 
-1 -1 -1 -1 1 1 1 10:-0.343066 128:-0.444759 
-0 -1 -1 -1 1 1 1 10:-0.138686 128:-0.13881 
-1 -1 -1 -1 1 1 1 10:-0.416058 128:-0.473088 
-1 -1 -1 -1 1 1 1 10:-0.430657 128:-0.325779 
-1 -1 -1 -1 1 1 1 10:-0.372263 128:-0.597734 
-1 -1 -1 -1 1 1 0 10:-0.766423 128:-0.756374 
-1 -1 -1 -1 1 1 1 10:-0.591241 128:-0.552408 
-1 -1 -1 -1 1 1 1 10:-0.605839 128:-0.490085 
-0 -1 -1 -1 1 1 1 10:-0.357664 128:-0.359773 
-1 -1 -1 -1 1 1 1 10:-0.576642 128:-0.711048 
-1 -1 -1 -1 1 1 1 10:-0.605839 128:-0.631728 
-0 -1 -1 -1 1 1 1 10:-0.40146 128:-0.201133 
-1 -1 -1 -1 1 1 1 10:-0.547445 128:-0.643059 
-1 -0 -1 -1 1 1 0 10:-0.678832 128:-0.818697 
-0 -0 -1 -0 1 1 1 10:0.50365 128:-0.308782 
-1 -1 -1 -1 1 1 1 10:-0.372263 128:-0.501416 
-0 -1 -1 -1 1 1 1 10:-0.40146 128:0.155807 
-1 -1 -1 -1 1 1 1 10:-0.313869 128:-0.524079 
-1 -1 -1 -1 1 1 1 10:-0.50365 128:-0.580737 
-0 -1 -1 -0 1 1 1 10:-0.080292 128:0.184136 
-1 -1 -1 -1 1 1 1 10:-0.343066 128:-0.467422 
-1 -1 -1 -1 1 1 1 10:-0.620438 128:-0.444759 
-0 -1 -1 -0 -1 1 1 10:0.0218978 128:-0.0594901 
-1 -1 -1 -1 -1 1 1 10:-0.693431 128:-0.473088 
-1 -1 -1 -1 -1 1 1 10:-0.50365 128:-0.671388 
-1 -1 -1 -1 -1 1 1 10:-0.226277 128:-0.286119 
-1 -1 -1 -1 -1 1 1 10:-0.664234 128:-0.280453 
-1 -1 -1 -1 -1 1 1 10:-0.153285 128:-0.172805 
-0 -1 -1 -0 -1 1 1 10:0.138686 128:-0.082153 
-1 -1 -1 -1 -1 1 1 10:-0.29927 128:-0.0934844 
-1 -1 -1 -1 -1 1 1 10:-0.416058 128:-0.575071 
-1 -1 -1 -1 -1 1 1 10:-0.19708 128:-0.342776 
-1 -1 -1 -1 -1 1 1 10:-0.124088 128:-0.184136 
-0 -1 -1 -0 -1 1 1 10:0.00729927 128:0.0311615 
-1 -1 -1 -1 -1 1 1 10:-0.226277 128:-0.235127 
-1 -1 -1 -1 -1 1 1 10:-0.226277 128:-0.00283286 
-1 -1 -1 -1 -1 1 1 10:-0.0948905 128:-0.286119 
-1 -1 -1 -1 -1 1 1 10:-0.29927 128:-0.280453 
-1 -1 -1 -1 -1 1 1 10:-0.372263 128:-0.592068 
-1 -1 -1 -1 -1 1 1 10:-0.167883 128:-0.0934844 
-1 -1 -1 -1 -1 1 1 10:-0.386861 128:-0.648725 
-1 -1 -1 -1 -1 1 1 10:-0.357664 128:-0.223796 
-1 -1 -1 -1 -1 1 1 10:-0.343066 128:0.0538244 
-1 -1 -1 -1 -1 1 1 10:-0.0948905 128:-0.286119 
-1 -1 -1 -1 -1 1 1 10:-0.664234 128:-0.535411 
-1 -1 -1 -1 -1 1 1 10:-0.562044 128:-0.252125 
-0 -0 -1 -0 -1 0 0 10:0.737226 128:-0.0368272 
-0 -0 -1 -0 -1 1 0 10:0.167883 128:0.25779 
-1 -1 -1 -1 -1 1 1 10:-0.328467 128:-0.512748 
-1 -1 -1 -1 -1 1 1 10:-0.270073 128:-0.235127 
-0 -1 -1 -0 -1 1 1 10:0.00729927 128:0.104816 
-1 -1 -1 -1 -1 1 1 10:-0.40146 128:-0.575071 
-1 -1 -1 -1 -1 1 1 10:-0.693431 128:-0.450425 
-0 -1 -1 -1 -1 1 1 10:-0.00729927 128:-0.116147 
-1 -1 -1 -1 -1 1 1 10:-0.313869 128:-0.235127 
-1 -1 -1 -1 -1 1 1 10:-0.722628 128:-0.745042 
-0 -1 -1 -0 -1 1 1 10:-0.0364964 128:0.144476 
-1 -1 -1 -1 -1 1 1 10:-0.372263 128:-0.359773 
-1 -1 -1 -1 -1 1 1 10:-0.372263 128:-0.0764873 
-1 -1 -1 -1 -1 1 1 10:-0.474453 128:-0.0368272 
-1 -1 -1 -1 -1 1 1 10:-0.328467 128:-0.342776 
-0 -0 -1 -0 -1 1 1 10:0.167883 128:0.0594901 
-0 -0 -1 -0 -1 1 1 10:0.372263 128:-0.161473 
-1 -1 -1 -1 -1 1 1 10:-0.576642 128:-0.263456 
-1 -1 -1 -1 -1 1 1 10:-0.328467 128:-0.13881 
-1 -1 -1 -1 -1 1 1 10:-0.255474 128:-0.0651558 
-0 -1 -1 -1 -1 1 1 10:0.284672 128:-0.405099 
-1 -1 -1 -1 -1 1 1 10:-0.138686 128:-0.314448 
-1 -1 -1 -1 -1 1 1 10:-0.284672 128:-0.524079 
-1 -1 -1 -1 -1 1 1 10:-0.474453 128:-0.518414 
-1 -1 -1 -1 -1 1 1 10:-0.255474 128:-0.427762 
-0 -1 -1 -0 -1 1 1 10:0.0510949 128:0.0424929 
-0 -0 -1 -0 -1 1 0 10:0.489051 128:0.00849858 
-1 -1 -1 -1 -1 1 1 10:0.0218978 128:-0.274788 
-0 -1 -1 -0 -1 1 1 10:0.167883 128:-0.104816 
-1 -1 -1 -1 -1 1 1 10:-0.124088 128:-0.0934844 
-1 -1 -1 -1 -1 1 1 10:-0.211679 128:-0.161473 
-0 -1 -1 -1 -1 1 1 10:0.00729927 128:-0.0934844 
-1 -1 -1 -1 -1 1 1 10:-0.737226 128:-0.552408 
-1 -1 -1 -1 -1 1 1 10:-0.284672 128:-0.359773 
-0 -1 -1 -0 -1 1 1 10:-0.0948905 128:0.0594901 
-1 -1 -1 -1 -1 1 1 10:-0.459854 128:-0.507082 
-1 -1 -1 -1 -1 1 1 10:-0.518248 128:-0.433428 
-1 -1 -1 -1 -1 1 1 10:-0.270073 128:-0.354108 
-0 -0 -1 -0 -1 1 1 10:0.19708 128:0.0368272 
-1 -1 -1 -1 -1 1 1 10:-0.547445 128:-0.705382 
-1 -1 -1 -1 -1 1 1 10:-0.240876 128:-0.21813 
-1 -1 -1 -1 -1 1 1 10:-0.0948905 128:-0.286119 
-0 -1 -1 -0 -1 1 1 10:0.0218978 128:-0.0368272 
-0 -1 -1 -1 -1 1 1 10:-0.0218978 128:-0.0424929 
-0 -0 -1 -0 -1 1 0 10:-0.080292 128:0.246459 
-0 -0 -1 -0 -1 0 0 10:0.240876 128:0.240793 
-0 -1 -1 -0 -1 1 1 10:0.0510949 128:-0.0481586 
-1 -1 -1 -1 -1 1 1 10:-0.19708 128:-0.274788 
-1 -1 -1 -1 -1 1 1 10:-0.50365 128:-0.643059 
-1 -1 -1 -1 -1 1 1 10:-0.270073 128:-0.382436 
-0 -0 -1 -0 -1 1 0 10:0.138686 128:0.240793 
-1 -1 -1 -1 -1 1 1 10:-0.270073 128:0.0764873 
-0 -1 -1 -0 -1 1 1 10:0.167883 128:-0.13881 
-1 -1 -1 -1 -1 1 1 10:-0.138686 128:-0.331445 
-1 -1 -1 -1 -1 1 1 10:-0.40146 128:-0.348442 
-1 -1 -1 -1 -1 1 1 10:-0.226277 128:-0.25779 
-1 -1 -1 -1 -1 1 1 10:0.00729927 128:-0.359773 
-0 -1 -1 -1 -1 1 1 10:0.138686 128:-0.286119 
-1 -1 -1 -1 -1 1 1 10:-0.00729927 128:-0.189802 
-1 -1 -1 -1 -1 1 1 10:-0.153285 128:-0.439093 
-1 -1 -1 -1 -1 1 1 10:0.00729927 128:-0.473088 
-0 -0 -1 -0 -1 1 1 10:0.0948905 128:0.0878187 
-1 -1 -1 -1 -1 1 1 10:-0.649635 128:-0.711048 
-1 -1 -1 -1 -1 1 1 10:-0.138686 128:-0.286119 
-0 -1 -1 -1 -1 1 1 10:0.0218978 128:-0.195467 
-0 -1 -1 -1 -1 1 1 10:0.0364964 128:-0.127479 
-1 -1 -1 -1 -1 1 1 10:-0.109489 128:-0.456091 
-1 -1 -1 -1 -1 1 1 10:-0.153285 128:-0.303116 
-1 -1 -1 -1 -1 1 1 10:-0.19708 128:-0.0481586 
-1 -1 -1 -1 -1 1 1 10:-0.138686 128:-0.0934844 
-0 -0 -1 -0 -0 0 0 10:0.29927 128:0.376771 
-0 -1 -1 -1 -1 1 1 10:-0.124088 128:-0.0481586 
-1 -1 -1 -1 -1 1 1 10:-0.182482 128:-0.303116 
-1 -1 -1 -1 -1 1 1 10:-0.459854 128:-0.393768 
-1 -1 -1 -1 -1 1 1 10:-0.0218978 128:-0.161473 
-0 -0 -1 -0 -0 0 0 10:0.605839 128:0.29745 
-0 -1 -1 -1 -1 1 1 10:0.0364964 128:-0.150142 
-0 -1 -1 -0 -1 1 1 10:0.109489 128:-0.0424929 
-1 -1 -1 -1 -1 1 1 10:-0.167883 128:-0.161473 
-1 -1 -1 -1 -1 1 1 10:-0.649635 128:-0.779037 
-1 -1 -1 -1 -1 1 1 10:-0.19708 128:-0.195467 
-1 -1 -1 -1 -1 1 1 10:-0.372263 128:-0.0708215 
-1 -1 -1 -1 -1 1 1 10:-0.0510949 128:-0.274788 
-0 -1 -1 -0 -1 1 1 10:-0.167883 128:0.17847 
-1 -1 -1 -1 -1 1 1 10:-0.50365 128:-0.456091 
-1 -1 -1 -1 -1 1 1 10:-0.430657 128:-0.365439 
-1 -1 -1 -1 -1 1 1 10:-0.240876 128:-0.280453 
-1 -1 -1 -1 -1 1 1 10:-0.416058 128:-0.512748 
-1 -1 -1 -1 -1 1 1 10:-0.40146 128:-0.25779 
-1 -1 -1 -1 -1 1 1 10:-0.372263 128:-0.371105 
-1 -1 -1 -1 -1 1 1 10:-0.313869 128:-0.167139 
-0 -1 -1 -0 -1 1 1 10:-0.0364964 128:-0.00849858 
-1 -1 -1 -1 -1 1 1 10:-0.912409 128:-0.858357 
-0 -1 -1 -1 -1 1 1 10:-0.00729927 128:-0.104816 
-1 -1 -1 -1 -1 1 1 10:-0.357664 128:-0.422096 
-1 -1 -1 -1 -1 1 1 10:-0.255474 128:0.0708215 
-1 -1 -1 -1 -1 1 1 10:-0.0948905 128:-0.246459 
-1 -1 -1 -1 -1 1 1 10:-0.328467 128:-0.121813 
-0 -0 -1 -0 -1 1 1 10:0.29927 128:-0.17847 
-0 -1 -1 -1 -1 1 1 10:-0.080292 128:-0.082153 
-1 -1 -1 -1 -1 1 1 10:-0.29927 128:-0.286119 
-0 -1 -1 -0 -1 1 1 10:-0.0656934 128:0.0538244 
-1 -1 -1 -1 -1 1 1 10:-0.343066 128:-0.410765 
-0 -1 -1 -1 -1 1 1 10:-0.270073 128:0.0991501 
-1 -1 -1 -1 -1 1 1 10:-0.693431 128:-0.524079 
-1 -1 -1 -1 -1 1 1 10:-0.664234 128:-0.733711 
-0 -1 -1 -1 -1 1 1 10:-0.0364964 128:-0.0991501 
-1 -1 -1 -1 -1 1 1 10:-0.240876 128:-0.263456 
-1 -1 -1 -1 -1 1 1 10:-0.328467 128:-0.507082 
-0 -1 -1 -1 -1 1 1 10:-0.226277 128:0.0708215 
-0 -0 -1 -0 -1 1 1 10:0.0948905 128:0.0424929 
-1 -1 -1 -1 -1 1 1 10:-0.605839 128:-0.699717 
-1 -1 -1 -1 -1 1 1 10:-0.678832 128:-0.72238 
-1 -1 -1 -1 -1 1 1 10:-0.576642 128:-0.495751 
-1 -1 -1 -1 -1 1 1 10:-0.124088 128:-0.172805 
-1 -1 -1 -1 -1 1 1 10:-0.255474 128:-0.637394 
-1 -1 -1 -1 -1 1 1 10:-0.211679 128:-0.263456 
-1 -1 -1 -1 -1 1 1 10:-0.284672 128:-0.359773 
-1 -1 -1 -1 -1 1 1 10:-0.255474 128:-0.286119 
-1 -1 -1 -1 -1 1 1 10:-0.270073 128:-0.29745 
-1 -1 -1 -1 -1 1 1 10:-0.313869 128:-0.405099 
-1 -1 -1 -1 -1 1 1 10:-0.459854 128:-0.365439 
-1 -1 -1 -1 -1 1 1 10:-0.50365 128:-0.280453 
-0 -0 -1 -0 -1 1 0 10:0.240876 128:0.201133 
-1 -1 -1 -1 -1 1 1 10:-0.00729927 128:-0.223796 
-1 -1 -1 -1 -1 1 1 10:-0.328467 128:-0.150142 
-1 -1 -1 -1 -1 1 1 10:0.0948905 128:-0.314448 
-1 -1 -1 -1 -1 1 1 10:-0.0656934 128:-0.33711 
-0 -1 -1 -1 -1 1 1 10:-0.19708 128:0.082153 
-1 -1 -1 -1 -1 1 1 10:-0.270073 128:-0.308782 
-1 -1 -1 -1 -1 1 1 10:-0.211679 128:-0.150142 
-0 -1 -1 -0 -1 1 1 10:0.0948905 128:-0.0934844 
-1 -1 -1 -1 -1 1 1 10:-0.240876 128:-0.450425 
-0 -1 -1 -1 -1 1 1 10:-0.080292 128:-0.0141643 
-1 -1 -1 -1 -1 1 1 10:-0.29927 128:-0.393768 
-0 -0 -1 -0 -0 0 0 10:0.649635 128:0.286119 
-0 -0 -1 -0 -1 1 1 10:0.29927 128:-0.206799 
-1 -1 -1 -1 -1 1 1 10:-0.182482 128:-0.518414 
-1 -1 -1 -1 -1 1 1 10:-0.0656934 128:-0.246459 
-1 -1 -1 -1 -1 1 1 10:-0.270073 128:-0.490085 
-1 -1 -1 -1 -1 1 1 10:-0.576642 128:-0.592068 
-0 -1 -1 -0 -1 1 1 10:-0.0656934 128:0.0708215 
-1 -1 -1 -1 -1 1 1 10:-0.138686 128:-0.439093 
-1 -1 -1 -1 -1 1 1 10:-0.284672 128:-0.13881 
-0 -0 -1 -0 -1 1 0 10:0.313869 128:0.0311615 
-1 -1 -1 -1 -1 1 1 10:-0.153285 128:-0.286119 
-1 -1 -1 -1 -1 1 1 10:-0.182482 128:-0.416431 
-0 -0 -1 -0 -1 0 0 10:0.430657 128:0.201133 
-1 -1 -1 -1 -1 1 1 10:-0.40146 128:-0.478754 
-1 -1 -1 -1 -1 1 1 10:-0.635036 128:-0.711048 
-0 -1 -1 -0 -1 1 1 10:-0.080292 128:0.121813 
-1 -1 -1 -1 -1 1 1 10:-0.0948905 128:-0.303116 
-0 -0 -1 -0 -1 0 0 10:0.430657 128:0.201133 
-1 -1 -1 -1 -1 1 1 10:-0.489051 128:-0.359773 
-1 -1 -1 -1 -1 1 1 10:-0.313869 128:-0.00849858 
-1 -1 -1 -1 -1 1 1 10:-0.518248 128:-0.359773 
-1 -1 -1 -1 -1 1 1 10:0.080292 128:-0.325779 
-0 -1 -1 -1 -1 1 1 10:0.0656934 128:-0.229462 
-1 -1 -1 -1 -1 1 1 10:-0.240876 128:-0.320113 
-1 -1 -1 -1 -1 1 1 10:-0.270073 128:-0.320113 
-1 -1 -1 -1 -1 1 1 10:-0.328467 128:-0.501416 
-1 -1 -1 -1 -1 1 1 10:-0.40146 128:-0.484419 
-1 -1 -1 -1 -1 1 1 10:-0.255474 128:-0.29745 
-1 -1 -1 -1 -1 1 1 10:-0.474453 128:-0.552408 
-1 -1 -1 -1 -1 1 1 10:-0.0510949 128:-0.263456 
-1 -1 -1 -1 -1 1 1 10:-0.591241 128:-0.688385 
-1 -1 -1 -1 -1 1 1 10:-0.313869 128:-0.382436 
-1 -1 -1 -1 -1 1 1 10:-0.226277 128:-0.473088 
-1 -1 -1 -1 -1 1 1 10:-0.270073 128:-0.410765 
-0 -0 -1 -0 -1 1 0 10:0.167883 128:0.0764873 
-0 -0 -1 -0 -1 0 0 10:0.19708 128:0.348442 
-1 -1 -1 -1 -1 1 1 10:-0.386861 128:-0.427762 
-0 -1 -1 -0 -1 1 1 10:0.182482 128:-0.161473 
-0 -1 -1 -1 -1 1 1 10:0.0218978 128:-0.082153 
-1 -1 -1 -1 -1 1 1 10:0.00729927 128:-0.274788 
-0 -0 -1 -0 -1 1 1 10:0.386861 128:-0.13881 
-0 -0 -1 -0 -1 1 0 10:-0.00729927 128:0.223796 
-1 -1 -1 -1 -1 1 1 10:-0.547445 128:-0.461756 
-1 -1 -1 -1 -1 1 1 10:-0.489051 128:-0.416431 
-1 -1 -1 -1 -1 1 1 10:-0.50365 128:-0.609065 
-0 -1 -1 -1 -1 1 1 10:-0.00729927 128:-0.155807 
-0 -1 -1 -0 -1 1 1 10:0.109489 128:-0.144476 
-0 -0 -1 -0 -1 0 0 10:0.255474 128:0.252125 
-1 -1 -1 -1 -1 1 1 10:-0.489051 128:-0.473088 
-0 -0 -1 -0 -1 1 0 10:0.270073 128:0.155807 
-0 -0 -1 -0 -0 0 0 10:0.547445 128:0.365439 
-1 -1 -1 -1 -1 1 1 10:0.0656934 128:-0.422096 
-1 -1 -1 -1 -1 1 1 10:-0.29927 128:-0.33711 
-1 -1 -1 -1 -1 1 1 10:-0.226277 128:-0.0424929 
-1 -1 -1 -1 -1 1 1 10:-0.445255 128:-0.558074 
-1 -1 -1 -1 -1 1 1 10:-0.532847 128:-0.212465 
-1 -1 -1 -1 -1 1 1 10:-0.357664 128:-0.133144 
-1 -1 -1 -1 -1 1 1 10:-0.080292 128:-0.359773 
-1 -1 -1 -1 -1 1 1 10:-0.0656934 128:-0.21813 
-0 -1 -1 -0 -1 1 1 10:0.19708 128:-0.184136 
-1 -1 -1 -1 -1 1 1 10:-0.124088 128:-0.342776 
-1 -1 -1 -1 -1 1 1 10:-0.343066 128:-0.495751 
-1 -1 -1 -1 -1 1 1 10:-0.226277 128:-0.144476 
-1 -1 -1 -1 -1 1 1 10:-0.240876 128:-0.410765 
-0 -1 -1 -1 -1 1 1 10:0.080292 128:-0.201133 
-1 -1 -1 -1 -1 1 1 10:-0.270073 128:-0.303116 
-1 -1 -1 -1 -1 1 1 10:-0.50365 128:-0.558074 
-0 -0 -1 -0 -0 0 0 10:0.459854 128:0.21813 
-1 -1 -1 -1 -1 1 1 10:-0.0364964 128:-0.25779 
-0 -0 -1 -0 -1 1 1 10:0.255474 128:-0.0934844 
-0 -0 -1 -0 -1 1 1 10:0.255474 128:-0.0481586 
-0 -0 -1 -0 -1 0 0 10:0.313869 128:0.172805 
-1 -1 -1 -1 -1 1 1 10:-0.284672 128:-0.382436 
-1 -1 -1 -1 -1 1 1 10:-0.270073 128:-0.467422 
-1 -1 -1 -1 -1 1 1 10:-0.416058 128:-0.314448 
-1 -1 -1 -1 -1 1 1 10:-0.284672 128:-0.359773 
-1 -1 -1 -1 -1 1 1 10:-0.328467 128:-0.206799 
-1 -1 -1 -1 -1 1 1 10:-0.416058 128:-0.490085 
-0 -1 -1 -0 -1 1 1 10:0.0364964 128:0.0311615 
-1 -1 -1 -1 -1 1 1 10:-0.328467 128:-0.184136 
-1 -1 -1 -1 -1 1 1 10:-0.89781 128:-0.796034 
-0 -1 -1 -0 -1 1 1 10:0.0510949 128:-0.0424929 
-0 -0 -1 -0 -1 0 0 10:0.226277 128:0.308782 
-1 -1 -1 -1 -1 1 1 10:-0.912409 128:-0.84136 
-0 -0 -1 -0 -1 1 1 10:0.153285 128:0.0141643 
-1 -1 -1 -1 -1 1 1 10:-0.080292 128:-0.150142 
-1 -1 -1 -1 -1 1 1 10:-0.445255 128:-0.405099 
-1 -1 -1 -1 -1 1 1 10:-0.839416 128:-0.84136 
-1 -1 -1 -1 -1 1 1 10:-0.138686 128:-0.461756 
-0 -0 -1 -0 -1 1 0 10:0.19708 128:0.246459 
-1 -1 -1 -1 -1 1 1 10:-0.416058 128:-0.569405 
-1 -1 -1 -1 -1 1 1 10:-0.19708 128:-0.348442 
-0 -0 -1 -0 -1 1 0 10:0.00729927 128:0.212465 
-1 -1 -1 -1 -1 1 1 10:-0.357664 128:-0.303116 
-1 -1 -1 -1 -1 1 1 10:-0.416058 128:-0.444759 
-1 -1 -1 -1 -1 1 1 10:-0.576642 128:-0.597734 
-0 -0 -1 -0 -1 1 1 10:0.109489 128:0.0651558 
-1 -1 -1 -1 -1 1 1 10:-0.153285 128:-0.269122 
-1 -1 -1 -1 -1 1 1 10:-0.255474 128:-0.206799 
-1 -1 -1 -1 -1 1 1 10:-0.29927 128:-0.580737 
-1 -1 -1 -1 -1 1 1 10:-0.678832 128:-0.637394 
-0 -0 -1 -0 -1 1 1 10:0.240876 128:-0.0934844 
-1 -1 -1 -1 -1 1 1 10:-0.50365 128:-0.648725 
-1 -1 -1 -1 -1 1 1 10:-0.138686 128:-0.195467 
-1 -1 -1 -1 -1 1 1 10:-0.29927 128:-0.29745 
-0 -0 -1 -0 -1 1 1 10:0.138686 128:-0.0424929 
-0 -0 -1 -0 -1 1 1 10:0.211679 128:-0.0651558 
-0 -0 -1 -0 -1 1 1 10:0.153285 128:0.0651558 
-1 -1 -1 -1 -1 1 1 10:0.0948905 128:-0.314448 
-0 -0 -1 -0 -1 1 0 10:0.226277 128:0.150142 
-1 -1 -1 -1 -1 1 1 10:-0.255474 128:-0.189802 
-1 -1 -1 -1 -1 1 1 10:-0.445255 128:-0.433428 
-1 -1 -1 -1 -1 1 1 10:-0.328467 128:-0.269122 
-1 -1 -1 -1 -1 1 1 10:-0.00729927 128:-0.269122 
-0 -0 -1 -0 -1 1 0 10:0.0510949 128:0.263456 
-1 -1 -1 -1 -1 1 1 10:-0.328467 128:-0.450425 
-0 -0 -1 -0 -1 0 0 10:0.138686 128:0.456091 
-1 -1 -1 -1 -1 1 1 10:-0.255474 128:-0.524079 
-1 -1 -1 -1 -1 -1 1 10:-0.620438 128:-0.597734 
-1 -1 -1 -1 -1 -1 1 10:-0.489051 128:-0.677054 
-0 -1 -1 -1 -1 -1 1 10:-0.357664 128:-0.359773 
-1 -0 -1 -1 -0 -0 0 10:-0.868613 128:-0.847025 
-1 -1 -1 -1 -1 -1 1 10:-0.620438 128:-0.603399 
-1 -1 -1 -1 -1 -1 1 10:-0.50365 128:-0.694051 
-1 -0 -1 -1 -0 -0 0 10:-0.868613 128:-0.830028 
-1 -0 -1 -1 -1 -0 0 10:-0.781022 128:-0.790368 
-1 -1 -1 -1 -1 -1 1 10:-0.474453 128:-0.495751 
-1 -1 -1 -1 -1 -1 1 10:-0.562044 128:-0.592068 
-1 -0 -1 -1 -1 -1 1 10:-0.722628 128:-0.750708 
-0 -1 -1 -1 -1 -1 1 10:-0.0948905 128:-0.467422 
-0 -1 -1 -1 -1 -1 1 10:-0.357664 128:-0.524079 
-1 -1 -1 -1 -1 -1 1 10:-0.489051 128:-0.552408 
-0 -1 -1 -1 -1 -1 1 10:-0.459854 128:-0.478754 
-0 -1 -1 -1 -1 -1 1 10:-0.313869 128:-0.501416 
-1 -0 -1 -1 -0 -0 0 10:-0.927007 128:-0.943343 
-1 -0 -1 -1 -1 -1 1 10:-0.474453 128:-0.76204 
-1 -0 -1 -1 -0 -0 0 10:-0.854015 128:-0.847025 
-1 -1 -1 -1 -1 -1 1 10:-0.416058 128:-0.603399 
-0 -1 -1 -1 -1 -1 1 10:-0.40146 128:-0.478754 
-1 -1 -1 -1 -1 -1 1 10:-0.518248 128:-0.575071 
-1 -0 -1 -1 -1 -1 0 10:-0.678832 128:-0.8017 
-0 -1 -1 -0 -1 -1 1 10:-0.00729927 128:-0.450425 
-1 -1 -1 -1 -1 -1 1 10:-0.489051 128:-0.671388 
-0 -1 -1 -1 -1 -1 1 10:-0.372263 128:-0.580737 
-0 -1 -1 -1 -1 -1 1 10:-0.313869 128:-0.524079 
-1 -1 -1 -1 -1 -1 1 10:-0.547445 128:-0.495751 
-1 -1 -1 -1 -1 -1 1 10:-0.678832 128:-0.563739 
-0 -1 -1 -1 -1 -1 1 10:-0.313869 128:-0.450425 
-1 -0 -1 -1 -1 -0 0 10:-0.708029 128:-0.869688 
-1 -1 -1 -1 -1 -1 1 10:-0.620438 128:-0.444759 
-0 -1 -1 -1 -1 -1 1 10:-0.270073 128:-0.331445 
-1 -1 -1 -1 -1 -1 1 10:-0.532847 128:-0.677054 
-1 -1 -1 -1 -1 -1 1 10:-0.445255 128:-0.631728 
-0 -1 -1 -1 -1 -1 1 10:-0.240876 128:-0.348442 
-1 -0 -1 -1 -1 -0 0 10:-0.824818 128:-0.779037 
-1 -0 -1 -1 -0 -0 0 10:-0.854015 128:-0.852691 
-1 -1 -1 -1 -1 -1 1 10:-0.50365 128:-0.648725 
-1 -1 -1 -1 -1 -1 1 10:-0.430657 128:-0.535411 
-1 -1 -1 -1 -1 -1 1 10:-0.50365 128:-0.586402 
-1 -0 -1 -1 -1 -0 0 10:-0.751825 128:-0.830028 
-1 -0 -0 -1 -0 -0 0 10:-0.956204 128:-0.96034 
-1 -0 -1 -1 -1 -0 0 10:-0.810219 128:-0.756374 
-0 -1 -1 -0 -1 -1 1 10:0.080292 128:-0.0878187 
-1 -1 -1 -1 -1 -1 1 10:-0.50365 128:-0.739377 
-0 -1 -1 -0 -1 -1 1 10:-0.19708 128:-0.223796 
-0 -1 -1 -0 -1 -1 1 10:-0.240876 128:-0.235127 
-0 -1 -1 -1 -1 -1 1 10:-0.459854 128:-0.467422 
-1 -1 -1 -1 -1 -1 1 10:-0.664234 128:-0.580737 
-1 -0.3601007274762171 -1 -1 -1 -1 1 10:-0.693431 128:-0.716714 
-0 -1 -1 -0 -1 -1 1 10:-0.138686 128:-0.116147 
-1 -0 -1 -1 -1 -1 1 10:-0.532847 128:-0.807365 
-0 -1 -1 -0 -1 -1 1 10:0.00729927 128:-0.376771 
-0 -1 -1 -1 -1 -1 1 10:-0.0948905 128:-0.416431 
-1 -0 -1 -1 -1 -1 1 10:-0.635036 128:-0.8017 
-1 -0 -1 -1 -1 -0 0 10:-0.766423 128:-0.858357 
-1 -0 -1 -1 -1 -0 0 10:-0.79562 128:-0.830028 
-1 -0 -1 -1 -1 -1 0 10:-0.678832 128:-0.818697 
-1 -0 -1 -1 -0 -0 0 10:-0.89781 128:-0.903683 
-1 -0 -1 -1 -1 -0 0 10:-0.737226 128:-0.847025 
-0 -1 -1 -1 -1 -1 1 10:-0.357664 128:-0.501416 
-0 -1 -1 -1 -1 -1 1 10:-0.357664 128:-0.286119 
-1 -1 -1 -1 -1 -1 1 10:-0.562044 128:-0.648725 
-1 -0 -1 -1 -1 -1 0 10:-0.824818 128:-0.699717 
-1 -0 -1 -1 -0 -0 0 10:-0.810219 128:-0.943343 
-1 -1 -1 -1 -1 -1 1 10:-0.620438 128:-0.592068 
-0 -1 -1 -1 -1 -1 1 10:-0.357664 128:-0.586402 
-0 -1 -1 -0 -1 -1 1 10:-0.167883 128:-0.144476 
-0 -1 -1 -1 -1 -1 1 10:-0.313869 128:-0.405099 
-1 -1 -1 -1 -1 -1 1 10:-0.474453 128:-0.580737 
-1 -0 -0 -1 -0 -0 0 10:-0.956204 128:-0.949008 
-1 -1 -1 -1 -1 -1 1 10:-0.766423 128:-0.699717 
-0 -1 -1 -0 -1 -1 1 10:-0.0948905 128:-0.33711 
-1 -1 -1 -1 -1 -1 1 10:-0.678832 128:-0.654391 
-1 -1 -1 -1 -1 -1 1 10:-0.532847 128:-0.495751 
-1 -1 -1 -1 -1 -1 1 10:-0.605839 128:-0.558074 
-1 -1 -1 -1 -1 -1 1 10:-0.489051 128:-0.467422 
-1 -1 -1 -1 -1 -1 1 10:-0.445255 128:-0.637394 
-0 -1 -1 -1 -1 -1 1 10:-0.167883 128:-0.450425 
-1 -1 -1 -1 -1 -1 1 10:-0.445255 128:-0.569405 
-0 -1 -1 -1 -1 -1 1 10:-0.284672 128:-0.512748 
-0 -1 -1 -1 -1 -1 1 10:-0.459854 128:-0.461756 
-0 -1 -1 -0 -1 -1 1 10:-0.138686 128:-0.269122 
-1 -1 -1 -1 -1 -1 1 10:-0.664234 128:-0.699717 
-1 -0 -1 -1 -0 -0 0 10:-0.824818 128:-0.84136 
-1 -0 -0 -1 -0 -0 0 10:-0.956204 128:-0.977337 
-0 -1 -1 -0 -1 -1 1 10:-0.0364964 128:-0.320113 
-0 -1 -1 -1 -1 -1 1 10:-0.153285 128:-0.416431 
-1 -1 -1 -1 -1 -1 1 10:-0.474453 128:-0.490085 
-1 -0 -1 -1 -1 -1 0 10:-0.722628 128:-0.784703 
-1 -1 -1 -1 -1 -1 1 10:-0.532847 128:-0.648725 
-0 -1 -1 -1 -1 -1 1 10:-0.240876 128:-0.575071 
-1 -0 -1 -1 -0 -0 0 10:-0.868613 128:-0.807365 
-1 -1 -1 -1 -1 -1 1 10:-0.591241 128:-0.677054 
-1 -1 -1 -1 -1 -1 1 10:-0.708029 128:-0.711048 
-1 -0 -1 -1 -1 -0 0 10:-0.737226 128:-0.830028 
-1 -1 -1 -1 -1 -1 1 10:-0.79562 128:-0.671388 
-1 -1 -1 -1 -1 -1 1 10:-0.693431 128:-0.563739 
-1 -1 -1 -1 -1 -1 1 10:-0.591241 128:-0.456091 
-0 -1 -1 -1 -1 -1 1 10:-0.182482 128:-0.643059 
-1 -0 -1 -1 -1 -1 1 10:-0.50365 128:-0.756374 
-0 -1 -1 -1 -1 -1 1 10:-0.240876 128:-0.597734 
-0 -1 -1 -0 -1 -1 1 10:0.0510949 128:-0.280453 
-1 -0 -1 -1 -1 -0 0 10:-0.751825 128:-0.858357 
-0 -1 -1 -0 -1 -1 1 10:-0.0656934 128:-0.325779 
-0 -1 -1 -1 -1 -1 1 10:-0.313869 128:-0.172805 
-1 -1 -1 -1 -1 -1 1 10:-0.474453 128:-0.631728 
-0 -1 -1 -1 -1 -1 1 10:-0.240876 128:-0.433428 
-1 -0 -1 -1 -1 -1 1 10:-0.357664 128:-0.779037 
-0 -1 -1 -1 -1 -1 1 10:-0.211679 128:-0.467422 
-1 -1 -1 -1 -1 -1 1 10:-0.562044 128:-0.563739 
-1 -1 -1 -1 -1 -1 1 10:-0.664234 128:-0.563739 
-0 -1 -1 -1 -1 -1 1 10:-0.386861 128:-0.348442 
-0 -1 -1 -1 -1 -1 1 10:-0.357664 128:-0.461756 
-1 -0 -1 -1 -1 -1 1 10:-0.649635 128:-0.790368 
-0 -1 -1 -1 -1 -1 1 10:-0.138686 128:-0.490085 
-1 -0 -1 -1 -1 -1 1 10:-0.649635 128:-0.807365 
-1 -0 -0 -1 -0 -0 0 10:-0.985401 128:-0.926346 
-1 -1 -1 -1 -1 -1 1 10:-0.430657 128:-0.648725 
-1 -1 -1 -1 -1 -1 1 10:-0.416058 128:-0.597734 
-0 -1 -1 -0 -1 -1 1 10:-0.182482 128:-0.252125 
-0 -1 -1 -1 -1 -1 1 10:-0.343066 128:-0.478754 
-1 -1 -1 -1 -1 -1 1 10:-0.708029 128:-0.620397 
-1 -1 -1 -1 -1 -1 1 10:-0.620438 128:-0.677054 
-1 -1 -1 -1 -1 -1 1 10:-0.386861 128:-0.654391 
-0 -1 -1 -1 -1 -1 1 10:-0.489051 128:-0.382436 
-1 -0 -1 -1 -1 -1 0 10:-0.781022 128:-0.76204 
-1 -1 -1 -1 -1 -1 1 10:-0.29927 128:-0.654391 
-1 -1 -1 -1 -1 -1 1 10:-0.620438 128:-0.705382 
-1 -1 -1 -1 -1 -1 1 10:-0.430657 128:-0.614731 
-1 -1 -1 -1 -1 -1 1 10:-0.620438 128:-0.648725 
-0 -1 -1 -1 -1 -1 1 10:-0.255474 128:-0.529745 
-0 -1 -1 -1 -1 -1 1 10:-0.40146 128:-0.161473 
-1 -1 -1 -1 -1 -1 1 10:-0.489051 128:-0.745042 
-0 -1 -1 -1 -1 -1 1 10:-0.240876 128:-0.671388 
-1 -0 -1 -1 -1 -0 0 10:-0.839416 128:-0.76204 
-1 -1 -1 -1 -1 -1 1 10:-0.591241 128:-0.660057 
-0 -1 -1 -1 -1 -1 1 10:-0.29927 128:-0.376771 
-1 -0 -1 -1 -0 -0 0 10:-0.883212 128:-0.858357 
-1 -0 -1 -1 -0 -0 0 10:-0.89781 128:-0.903683 
-0 -1 -1 -1 -1 -1 1 10:-0.182482 128:-0.563739 
-1 -0 -1 -1 -1 -1 0 10:-0.547445 128:-0.92068 
-1 -0 -1 -1 -0 -0 0 10:-0.883212 128:-0.937677 
-0 -1 -1 -1 -1 -1 1 10:-0.270073 128:-0.461756 
-0 -1 -1 -1 -1 -1 1 10:-0.080292 128:-0.518414 
-0 -1 -1 -0 -1 -1 1 10:0.0510949 128:-0.546742 
-0 -1 -1 -1 -1 -1 1 10:-0.240876 128:-0.467422 
-0 -1 -1 -0 -1 -1 1 10:-0.0364964 128:-0.0934844 
-1 -0 -1 -1 -0 -0 0 10:-0.927007 128:-0.937677 
-0 -1 -1 -1 -1 -1 1 10:-0.240876 128:-0.433428 
-1 -0 -1 -1 -0 -0 0 10:-0.854015 128:-0.909348 
-1 -0 -1 -1 -1 -1 1 10:-0.693431 128:-0.767705 
-1 -1 -1 -1 -1 -1 1 10:-0.372263 128:-0.592068 
-1 -0 -1 -1 -1 -0 0 10:-0.839416 128:-0.813031 
-0 -1 -1 -1 -1 -1 1 10:-0.270073 128:-0.342776 
-1 -0 -1 -1 -0 -0 0 10:-0.781022 128:-0.864023 
-0 -1 -1 -1 -1 -1 1 10:-0.182482 128:-0.671388 
-0 -1 -1 -1 -1 -1 1 10:-0.182482 128:-0.308782 
-0 -1 -1 -1 -1 -1 1 10:-0.328467 128:-0.603399 
-1 -1 -1 -1 -1 -1 1 10:-0.664234 128:-0.580737 
-1 -0 -1 -1 -1 -1 1 10:-0.708029 128:-0.739377 
-1 -1 -1 -1 -1 -1 1 10:-0.605839 128:-0.586402 
-1 -1 -1 -1 -1 -1 1 10:-0.810219 128:-0.648725 
-1 -0 -1 -1 -1 -1 1 10:-0.649635 128:-0.779037 
-0 -1 -1 -1 -1 -1 1 10:-0.416058 128:-0.490085 
-1 -1 -1 -1 -1 -1 1 10:-0.547445 128:-0.563739 
-1 -1 -1 -1 -1 -1 1 10:-0.532847 128:-0.665722 
-1 -0 -1 -1 -0 -0 0 10:-0.868613 128:-0.830028 
-1 -0 -1 -1 -0 -0 0 10:-0.941606 128:-0.903683 
-1 -1 -1 -1 -1 -1 1 10:-0.708029 128:-0.694051 
-0 -1 -1 -1 -1 -1 1 10:-0.226277 128:-0.671388 
-0 -1 -1 -1 -1 -1 1 10:-0.226277 128:-0.603399 
-0 -1 -1 -1 -1 -1 1 10:-0.124088 128:-0.495751 
-1 -1 -1 -1 -1 -1 1 10:-0.416058 128:-0.643059 
-1 -0 -1 -1 -1 -1 0 10:-0.722628 128:-0.790368 
-1 -1 -1 -1 -1 -1 1 10:-0.576642 128:-0.677054 
-0 -1 -1 -1 -1 -1 1 10:-0.40146 128:-0.518414 
-1 -1 -1 -1 -1 -1 1 10:-0.79562 128:-0.677054 
-1 -1 -1 -1 -1 -1 1 10:-0.40146 128:-0.609065 
-0 -1 -1 -1 -1 -1 1 10:-0.284672 128:-0.348442 
-1 -0 -1 -1 -0 -0 0 10:-0.824818 128:-0.892351 
-1 -1 -1 -1 -1 -1 1 10:-0.518248 128:-0.620397 
-1 -1 -1 -1 -1 -1 1 10:-0.416058 128:-0.552408 
-0 -1 -1 -1 -1 -1 1 10:-0.138686 128:-0.422096 
-1 -0 -1 -1 -1 -1 0 10:-0.708029 128:-0.824363 
-1 -0 -1 -1 -0 -0 0 10:-0.854015 128:-0.858357 
-1 -0 -1 -1 -1 -1 0 10:-0.854015 128:-0.705382 
-1 -1 -1 -1 -1 -1 1 10:-0.810219 128:-0.637394 
-1 -0 -1 -1 -1 -1 0 10:-0.605839 128:-0.852691 
-1 -1 -1 -1 -1 -1 1 10:-0.547445 128:-0.654391 
-0 -1 -1 -1 -1 -1 1 10:-0.211679 128:-0.524079 
-1 -1 -1 -1 -1 -0 0 10:-0.941606 128:-0.671388 
-0 -1 -1 -1 -1 -1 1 10:-0.255474 128:-0.518414 
-0 -1 -1 -1 -1 -1 1 10:-0.40146 128:-0.478754 
-1 -0 -1 -1 -1 -1 1 10:-0.562044 128:-0.8017 
-1 -0 -1 -1 -0 -0 0 10:-0.854015 128:-0.92068 
-1 -1 -1 -1 -1 -1 1 10:-0.737226 128:-0.643059 
-0 -1 -1 -0 -1 -1 1 10:-0.080292 128:-0.229462 
-1 -1 -1 -1 -1 -1 1 10:-0.620438 128:-0.643059 
-1 -1 -1 -1 -1 -1 1 10:-0.459854 128:-0.609065 
-1 -1 -1 -1 -1 -1 1 10:-0.605839 128:-0.614731 
-1 -0 -1 -1 -1 -1 0 10:-0.781022 128:-0.773371 
-1 -0 -0 -1 -0 -0 0 10:-0.956204 128:-0.943343 
-0 -1 -1 -1 -1 -1 1 10:-0.518248 128:-0.33711 
-1 -1 -1 -1 -1 -1 1 10:-0.547445 128:-0.586402 
-1 -1 -1 -1 -1 -1 1 10:-0.605839 128:-0.677054 
-0 -1 -1 -1 -1 -1 1 10:-0.635036 128:-0.320113 
-1 -0.6398992725237829 -1 -1 -1 -1 1 10:-0.328467 128:-0.773371 
-0 -1 -1 -1 -1 -1 1 10:-0.240876 128:-0.388102 
-1 -1 -1 -1 -1 -1 1 10:-0.722628 128:-0.575071 
-1 -1 -1 -1 -1 -1 1 10:-0.620438 128:-0.614731 
-1 -0 -1 -1 -1 -1 1 10:-0.605839 128:-0.796034 
-1 -1 -1 -1 -1 -1 1 10:-0.664234 128:-0.660057 
-0 -1 -1 -1 -1 -1 1 10:-0.357664 128:-0.461756 
-1 -0 -1 -1 -1 -0 0 10:-0.766423 128:-0.813031 
-1 -0 -1 -1 -1 -0 0 10:-0.751825 128:-0.875354 
-1 -1 -1 -1 -1 -1 1 10:-0.459854 128:-0.529745 
-1 -1 -1 -1 -1 -1 1 10:-0.430657 128:-0.705382 
-1 -0 -1 -1 -1 -0 0 10:-0.737226 128:-0.869688 
-0 -1 -1 -1 -1 -1 1 10:-0.255474 128:-0.450425 
-1 -1 -1 -1 -1 -1 1 10:-0.445255 128:-0.592068 
-1 -0 -1 -1 -1 -0 0 10:-0.708029 128:-0.869688 
-0 -1 -1 -1 -1 -1 1 10:-0.080292 128:-0.444759 
-0 -1 -1 -0 -1 -1 1 10:-0.0656934 128:-0.342776 
-1 -0 -1 -1 -0 -0 0 10:-0.824818 128:-0.824363 
-0 -1 -1 -1 -1 -1 1 10:-0.211679 128:-0.433428 
-0 -1 -1 -1 -1 -1 1 10:-0.313869 128:-0.518414 
-0 -1 -1 -0 -1 -1 1 10:-0.109489 128:-0.314448 
-1 -1 -1 -1 -1 -1 1 10:-0.678832 128:-0.654391 
-1 -0 -1 -1 -0 -0 0 10:-0.824818 128:-0.858357 
-0 -1 -1 -1 -1 -1 1 10:-0.343066 128:-0.541076 
-0 -1 -1 -1 -1 -1 1 10:-0.270073 128:-0.365439 
-0 -1 -1 -1 -1 -1 1 10:-0.343066 128:-0.535411 
-1 -1 -1 -1 -1 -1 1 10:-0.649635 128:-0.688385 
-1 -1 -1 -1 -1 -1 1 10:-0.50365 128:-0.614731 
-1 -1 -1 -1 -1 -1 1 10:-0.649635 128:-0.592068 
-0 -1 -1 -1 -1 -1 1 10:-0.50365 128:-0.325779 
-0 -1 -1 -0 -1 -1 1 10:0.19708 128:-0.0538244 
-0 -1 -1 -0 -1 -1 1 10:-0.240876 128:-0.17847 
-0 -1 -1 -1 -1 -1 1 10:-0.474453 128:-0.444759 
-0 -1 -1 -1 -1 -1 1 10:-0.328467 128:-0.388102 
-0 -1 -1 -1 -1 -1 1 10:-0.386861 128:-0.524079 
-1 -1 -1 -1 -1 -1 1 10:-0.620438 128:-0.716714 
-0 -1 -1 -1 -1 -1 1 10:-0.0510949 128:-0.512748 
-1 -0 -1 -1 -1 -0 0 10:-0.737226 128:-0.813031 
-1 -0 -1 -1 -1 -1 1 10:-0.576642 128:-0.84136 
-1 -1 -1 -1 -1 -1 1 10:-0.591241 128:-0.563739 
-1 -0 -1 -1 -0 -0 0 10:-0.839416 128:-0.926346 
-0 -1 -1 -1 -1 -1 1 10:-0.182482 128:-0.541076 
-0 -1 -1 -0 -1 -1 1 10:-0.0510949 128:-0.229462 
-1 -0 -1 -1 -1 -0 0 10:-0.868613 128:-0.790368 
-0 -1 -1 -1 -1 -1 1 10:-0.080292 128:-0.461756 
-1 -0 -1 -1 -0 -0 0 10:-0.868613 128:-0.858357 
-0 -1 -1 -1 -1 -1 1 10:-0.40146 128:-0.546742 
-1 -0 -1 -1 -1 -1 1 10:-0.605839 128:-0.796034 
-1 -1 -1 -1 -1 -1 1 10:-0.532847 128:-0.467422 
-1 -0 -0 -1 -0 -0 0 10:-1 128:-0.949008 
-0 -1 -1 -1 -1 -1 1 10:-0.270073 128:-0.25779 
-1 -1 -1 -1 -1 -1 1 10:-0.357664 128:-0.654391 
-1 -0 -1 -1 -0 -0 0 10:-0.927007 128:-0.943343 
-1 -1 -1 -1 -1 -1 1 10:-0.635036 128:-0.580737 
-1 -1 -1 -1 -1 -1 1 10:-0.518248 128:-0.609065 
-0 -1 -1 -1 -1 -1 1 10:-0.313869 128:-0.552408 
-0 -1 -1 -0 -1 -1 1 10:-0.124088 128:-0.325779 
-1 -0 -1 -1 -1 -1 0 10:-0.751825 128:-0.76204 
-1 -1 -1 -1 -1 -1 1 10:-0.591241 128:-0.529745 
-0 -1 -1 -0 -1 -1 1 10:-0.255474 128:-0.082153 
-0 -1 -1 -0 -1 -1 1 10:-0.124088 128:-0.212465 
-1 -0 -1 -1 -0 -0 0 10:-0.868613 128:-0.807365 
-0 -1 -1 -1 -1 -1 1 10:-0.255474 128:-0.490085 
-1 -1 -1 -1 -1 -1 1 10:-0.430657 128:-0.609065 
-1 -1 -1 -1 -1 -1 1 10:-0.386861 128:-0.569405 
-1 -1 -1 -1 -1 -1 1 10:-0.547445 128:-0.416431 
-0 -1 -1 -1 -1 -1 1 10:-0.343066 128:-0.535411 
-0 -1 -1 -1 -1 -1 1 10:-0.211679 128:-0.507082 
-0 -1 -1 -1 -1 -1 1 10:-0.167883 128:-0.371105 
-1 -1 -1 -1 -1 -1 1 10:-0.605839 128:-0.490085 
-0 -1 -1 -1 -1 -1 1 10:-0.124088 128:-0.393768 
-1 -1 -1 -1 -1 -1 1 10:-0.532847 128:-0.660057 
-1 -1 -1 -1 -1 -1 1 10:-0.459854 128:-0.592068 
-0 -1 -1 -1 -1 -1 1 10:-0.19708 128:-0.456091 
-1 -0 -1 -1 -1 -1 1 10:-0.781022 128:-0.705382 
-0 -1 -1 -1 -1 -1 1 10:-0.270073 128:-0.637394 
-1 -1 -1 -1 -1 -1 1 10:-0.474453 128:-0.541076 
-0 -1 -1 -1 -1 -1 1 10:-0.240876 128:-0.456091 
-0 -1 -1 -1 -1 -1 1 10:-0.386861 128:-0.512748 
-0 -1 -1 -0 -1 -1 1 10:-0.0218978 128:-0.252125 
-0 -1 -1 -0 -1 -1 1 10:0.240876 128:-0.0991501 
-0 -1 -1 -1 -1 -1 1 10:-0.211679 128:-0.303116 
-1 -1 -1 -1 -1 -1 1 10:-0.664234 128:-0.711048 
-1 -1 -1 -1 -1 -1 1 10:-0.445255 128:-0.546742 
-0 -1 -1 -0 -1 -1 1 10:-0.124088 128:-0.365439 
-1 -1 -1 -1 -1 -1 1 10:-0.591241 128:-0.552408 
-0 -1 -1 -0 -1 -1 1 10:-0.19708 128:-0.110482 
-0 -1 -1 -1 -1 -1 1 10:-0.313869 128:-0.586402 
-0 -1 -1 -1 -1 -1 1 10:-0.240876 128:-0.467422 
-1 -1 -1 -1 -1 -1 1 10:-0.605839 128:-0.716714 
-1 -1 -1 -1 -1 -1 1 10:-0.708029 128:-0.643059 
-0 -1 -1 -1 -1 -1 1 10:-0.313869 128:-0.507082 
-0 -1 -1 -1 -1 -1 1 10:-0.284672 128:-0.314448 
-1 -1 -1 -1 -1 -1 1 10:-0.708029 128:-0.665722 
-1 -1 -1 -1 -1 -1 1 10:-0.751825 128:-0.648725 
-0 -1 -1 -0 -1 -1 1 10:0.138686 128:-0.206799 
-0 -1 -1 -1 -1 -1 1 10:-0.270073 128:-0.507082 
-1 -1 -1 -1 -1 -1 1 10:-0.489051 128:-0.546742 
-1 -0 -1 -1 -0 -0 0 10:-0.883212 128:-0.875354 
-1 -1 -1 -1 -1 -1 1 10:-0.416058 128:-0.592068 
-1 -0 -0 -1 -0 -0 0 10:-0.985401 128:-0.830028 
-1 -1 -1 -1 -1 -1 1 10:-0.605839 128:-0.688385 
-1 -1 -1 -1 -1 -1 1 10:-0.678832 128:-0.694051 
-1 -0 -1 -1 -1 -1 0 10:-0.766423 128:-0.773371 
-1 -1 -1 -1 -1 -1 1 10:-0.518248 128:-0.637394 
-1 -1 -1 -1 -1 -1 1 10:-0.50365 128:-0.643059 
-0 -1 -1 -1 -1 -1 1 10:-0.240876 128:-0.473088 
-1 -1 -1 -1 -1 -1 1 10:-0.532847 128:-0.495751 
-1 -1 -1 -1 -1 -1 -1 10:-0.284672 128:-0.320113 
-1 -1 -1 -1 -1 -1 -1 10:-0.255474 128:-0.478754 
-0 -0 -1 -0 -1 -1 -1 10:0.386861 128:0.0481586 
-1 -1 -1 -1 -1 -1 -1 10:-0.708029 128:-0.671388 
-1 -1 -1 -1 -1 -1 -1 10:-0.781022 128:-0.728045 
-1 -1 -1 -1 -1 -1 -1 10:-0.591241 128:-0.773371 
-1 -1 -1 -1 -1 -1 -1 10:-0.708029 128:-0.716714 
-0 -1 -1 -1 -1 -1 -1 10:-0.153285 128:-0.0311615 
-1 -1 -1 -1 -1 -1 -1 10:-0.153285 128:-0.184136 
-1 -1 -1 -1 -1 -1 -1 10:-0.240876 128:-0.399433 
-1 -1 -1 -1 -1 -1 -1 10:-0.620438 128:0.0538244 
-0 -1 -1 -1 -1 -1 -1 10:-0.0218978 128:-0.252125 
-0 -0 -1 -0 -1 -1 -1 10:0.255474 128:-0.150142 
-0 -1 -1 -0 -1 -1 -1 10:-0.0218978 128:0.29745 
-1 -1 -1 -1 -1 -1 -1 10:-0.766423 128:-0.699717 
-1 -1 -1 -1 -1 -1 -1 10:-0.284672 128:-0.410765 
-1 -1 -1 -1 -1 -1 -1 10:-0.124088 128:-0.274788 
-1 -1 -1 -1 -1 -1 -1 10:-0.328467 128:-0.654391 
-1 -1 -1 -1 -1 -1 -1 10:-0.518248 128:-0.450425 
-1 -1 -1 -1 -1 -1 -1 10:-0.591241 128:-0.835694 
-1 -1 -1 -1 -1 -1 -1 10:-0.313869 128:-0.444759 
-0 -1 -1 -1 -1 -1 -1 10:-0.124088 128:0.00283286 
-1 -1 -1 -1 -1 -1 -1 10:-0.240876 128:-0.240793 
-1 -1 -1 -1 -1 -1 -1 10:-0.620438 128:-0.660057 
-1 -1 -1 -1 -1 -1 -1 10:-0.518248 128:-0.439093 
-1 -1 -1 -1 -1 -1 -1 10:-0.270073 128:-0.518414 
-1 -1 -1 -1 -1 -1 -1 10:-0.50365 128:-0.575071 
-1 -1 -1 -1 -1 -1 -1 10:-0.912409 128:-0.699717 
-1 -1 -1 -1 -1 -1 -1 10:-0.576642 128:-0.72238 
-1 -1 -1 -1 -1 -1 -1 10:-0.649635 128:-0.631728 
-1 -1 -1 -1 -1 -1 -1 10:-0.00729927 128:-0.563739 
-0 -1 -1 -1 -1 -1 -1 10:-0.080292 128:-0.0991501 
-1 -1 -1 -1 -1 -1 -1 10:-0.153285 128:-0.365439 
-1 -1 -1 -1 -1 -1 -1 10:-0.664234 128:-0.314448 
-1 -1 -1 -1 -1 -1 -1 10:-0.635036 128:-0.728045 
-1 -1 -1 -1 -1 -1 -1 10:-0.664234 128:-0.546742 
-1 -1 -1 -1 -1 -1 -1 10:-0.0656934 128:-0.263456 
-0 -1 -1 -1 -1 -1 -1 10:0.153285 128:-0.212465 
-0 -0 -1 -0 -1 -1 -1 10:0.226277 128:0.0594901 
-0 -0 -1 -0 -1 -1 -1 10:0.343066 128:-0.0934844 
-1 -1 -1 -1 -1 -1 -1 10:-0.50365 128:-0.478754 
-0 -0 -1 -0 -1 -1 -1 10:0.445255 128:0.348442 
-0 -1 -1 -0 -1 -1 -1 10:0.0510949 128:0.212465 
-1 -1 -1 -1 -1 -1 -1 10:-0.737226 128:-0.824363 
-1 -1 -1 -1 -1 -1 -1 10:-0.211679 128:-0.529745 
-1 -1 -1 -1 -1 -1 -1 10:-0.0948905 128:-0.410765 
-1 -1 -1 -1 -1 -1 -1 10:-0.0948905 128:-0.33711 
-1 -1 -1 -1 -1 -1 -1 10:-0.562044 128:-0.643059 
-1 -1 -1 -1 -1 -1 -1 10:-0.824818 128:-0.699717 
-1 -1 -1 -1 -1 -1 -1 10:-0.518248 128:-0.354108 
-1 -1 -1 -1 -1 -1 -1 10:-0.0218978 128:-0.263456 
-1 -1 -1 -1 -1 -1 -1 10:-0.489051 128:-0.342776 
-1 -1 -1 -1 -1 -1 -1 10:-0.635036 128:-0.535411 
-1 -1 -1 -1 -1 -1 -1 10:-0.562044 128:-0.614731 
-1 -1 -1 -1 -1 -1 -1 10:-0.255474 128:-0.399433 
-1 -1 -1 -1 -1 -1 -1 10:-0.124088 128:-0.643059 
-1 -1 -1 -1 -1 -1 -1 10:-0.124088 128:-0.546742 
-0 -1 -1 -1 -1 -1 -1 10:0.0364964 128:-0.104816 
-1 -1 -1 -1 -1 -1 -1 10:-0.79562 128:-0.875354 
-1 -1 -1 -1 -1 -1 -1 10:-0.167883 128:-0.648725 
-1 -1 -1 -1 -1 -1 -1 10:-0.29927 128:-0.410765 
-1 -1 -1 -1 -1 -1 -1 10:-0.591241 128:-0.586402 
-0 -1 -1 -0 -1 -1 -1 10:0.0364964 128:0.0311615 
-0 -1 -1 -1 -1 -1 -1 10:-0.19708 128:0.121813 
-1 -1 -1 -1 -1 -1 -1 10:-0.240876 128:-0.563739 
-1 -1 -1 -1 -1 -1 -1 10:-0.109489 128:-0.269122 
-1 -1 -1 -1 -1 -1 -1 10:-0.386861 128:-0.365439 
-1 -1 -1 -1 -1 -1 -1 10:-0.328467 128:-0.716714 
-1 -1 -1 -1 -1 -1 -1 10:-0.678832 128:-0.575071 
-1 -1 -1 -1 -1 -1 -1 10:-0.751825 128:-0.665722 
-1 -1 -1 -1 -1 -1 -1 10:-0.678832 128:-0.405099 
-1 -1 -1 -1 -1 -1 -1 10:-0.474453 128:-0.382436 
-0 -1 -1 -1 -1 -1 -1 10:-0.284672 128:0.229462 
-1 -1 -1 -1 -1 -1 -1 10:-0.708029 128:-0.558074 
-1 -1 -1 -1 -1 -1 -1 10:-0.182482 128:-0.365439 
-0 -1 -1 -1 -1 -1 -1 10:0.138686 128:-0.127479 
-1 -1 -1 -1 -1 -1 -1 10:-0.591241 128:-0.552408 
-1 -1 -1 -1 -1 -1 -1 10:-0.459854 128:-0.405099 
-1 -1 -1 -1 -1 -1 -1 10:-0.678832 128:-0.631728 
-1 -1 -1 -1 -1 -1 -1 10:-0.0948905 128:-0.206799 
-1 -1 -1 -1 -1 -1 -1 10:-0.0218978 128:-0.29745 
-1 -1 -1 -1 -1 -1 -1 10:-0.153285 128:-0.246459 
-1 -1 -1 -1 -1 -1 -1 10:-0.620438 128:-0.518414 
-1 -1 -1 -1 -1 -1 -1 10:-0.591241 128:-0.546742 
-1 -1 -1 -1 -1 -1 -1 10:-0.576642 128:-0.410765 
-0 -1 -1 -1 -1 -1 -1 10:-0.0364964 128:-0.121813 
-1 -1 -1 -1 -1 -1 -1 10:-0.883212 128:-0.733711 
-1 -1 -1 -1 -1 -1 -1 10:-0.284672 128:-0.246459 
-1 -1 -1 -1 -1 -1 -1 10:-0.40146 128:-0.495751 
-1 -1 -1 -1 -1 -1 -1 10:-0.313869 128:-0.637394 
-1 -1 -1 -1 -1 -1 -1 10:-0.459854 128:-0.478754 
-1 -1 -1 -1 -1 -1 -1 10:-0.372263 128:-0.439093 
-1 -1 -1 -1 -1 -1 -1 10:-0.255474 128:-0.365439 
-0 -1 -1 -1 -1 -1 -1 10:0.0510949 128:-0.0991501 
-1 -1 -1 -1 -1 -1 -1 10:-0.532847 128:-0.739377 
-0 -1 -1 -1 -1 -1 -1 10:0.153285 128:-0.223796 
-1 -1 -1 -1 -1 -1 -1 10:-0.313869 128:-0.450425 
-1 -1 -1 -1 -1 -1 -1 10:-0.79562 128:-0.864023 
-1 -1 -1 -1 -1 -1 -1 10:-0.518248 128:-0.495751 
-0 -1 -1 -1 -1 -1 -1 10:-0.0364964 128:-0.223796 
-1 -1 -1 -1 -1 -1 -1 10:-0.211679 128:-0.524079 
-1 -1 -1 -1 -1 -1 -1 10:-0.313869 128:-0.150142 
-1 -1 -1 -1 -1 -1 -1 10:-0.211679 128:-0.501416 
-0 -0 -1 -0 -1 -1 -1 10:0.29927 128:-0.0311615 
-0 -1 -1 -1 -1 -1 -1 10:-0.080292 128:0.0481586 
-1 -1 -1 -1 -1 -1 -1 10:-0.40146 128:-0.274788 
-1 -1 -1 -1 -1 -1 -1 10:-0.0364964 128:-0.456091 
-1 -1 -1 -1 -1 -1 -1 10:-0.576642 128:-0.620397 
-1 -1 -1 -1 -1 -1 -1 10:-0.0948905 128:-0.21813 
-1 -1 -1 -1 -1 -1 -1 10:-0.810219 128:-0.586402 
-1 -1 -1 -1 -1 -1 -1 10:-0.430657 128:-0.586402 
-0 -1 -1 -0 -1 -1 -1 10:0.080292 128:0.439093 
-1 -1 -1 -1 -1 -1 -1 10:-0.751825 128:-0.699717 
-0 -0 -1 -0 -1 -1 -1 10:0.255474 128:-0.13881 
-0 -1 -1 -1 -1 -1 -1 10:-0.167883 128:0.116147 
-0 -1 -1 -1 -1 -1 -1 10:0.080292 128:-0.144476 
-1 -1 -1 -1 -1 -1 -1 10:-0.605839 128:-0.399433 
-1 -1 -1 -1 -1 -1 -1 10:0.0364964 128:-0.365439 
-1 -1 -1 -1 -1 -1 -1 10:-0.605839 128:-0.495751 
-1 -1 -1 -1 -1 -1 -1 10:0.0948905 128:-0.388102 
-1 -1 -1 -1 -1 -1 -1 10:-0.211679 128:-0.331445 
-0 -1 -1 -1 -1 -1 -1 10:0.0364964 128:-0.184136 
-1 -1 -1 -1 -1 -1 -1 10:-0.109489 128:-0.376771 
-1 -1 -1 -1 -1 -1 -1 10:0.00729927 128:-0.342776 
-1 -1 -1 -1 -1 -1 -1 10:-0.781022 128:-0.84136 
-1 -1 -1 -1 -1 -1 -1 10:-0.138686 128:-0.314448 
-1 -1 -1 -1 -1 -1 -1 10:-0.430657 128:-0.427762 
-1 -1 -1 -1 -1 -1 -1 10:-0.693431 128:-0.76204 
-1 -1 -1 -1 -1 -1 -1 10:-0.372263 128:-0.359773 
-1 -1 -1 -1 -1 -1 -1 10:-0.386861 128:-0.325779 
-0 -0 -1 -0 -1 -1 -1 10:0.357664 128:-0.110482 
-1 -1 -1 -1 -1 -1 -1 10:-0.532847 128:-0.325779 
-1 -1 -1 -1 -1 -1 -1 10:-0.226277 128:-0.212465 
-0 -0 -1 -1 -1 -1 -1 10:0.167883 128:-0.235127 
-1 -1 -1 -1 -1 -1 -1 10:-0.284672 128:-0.422096 
-0 -1 -1 -1 -1 -1 -1 10:0.0948905 128:-0.144476 
-1 -1 -1 -1 -1 -1 -1 10:-0.547445 128:-0.756374 
-1 -1 -1 -1 -1 -1 -1 10:0.0364964 128:-0.314448 
-1 -1 -1 -1 -1 -1 -1 10:-0.284672 128:-0.410765 
-1 -1 -1 -1 -1 -1 -1 10:-0.328467 128:-0.580737 
-1 -1 -1 -1 -1 -1 -1 10:-0.0218978 128:-0.25779 
-1 -1 -1 -1 -1 -1 -1 10:-0.167883 128:-0.110482 
-1 -1 -1 -1 -1 -1 -1 10:-0.386861 128:-0.495751 
-0 -1 -1 -0 -1 -1 -1 10:-0.109489 128:0.161473 
-0 -0 -1 -1 -1 -1 -1 10:0.284672 128:-0.252125 
-1 -1 -1 -1 -1 -1 -1 10:-0.372263 128:-0.274788 
-1 -1 -1 -1 -1 -1 -1 10:-0.343066 128:-0.677054 
-0 -1 -1 -1 -1 -1 -1 10:0.138686 128:-0.144476 
-1 -1 -1 -1 -1 -1 -1 10:-0.19708 128:-0.082153 
-0 -0 -1 -0 -1 -1 -1 10:0.649635 128:0.25779 
-1 -1 -1 -1 -1 -1 -1 10:-0.591241 128:-0.586402 
-1 -1 -1 -1 -1 -1 -1 10:-0.255474 128:-0.359773 
-1 -1 -1 -1 -1 -1 -1 10:-0.620438 128:-0.427762 
-1 -1 -1 -1 -1 -1 -1 10:-0.0656934 128:-0.626062 
-1 -1 -1 -1 -1 -1 -1 10:-0.343066 128:-0.614731 
-1 -1 -1 -1 -1 -1 -1 10:-0.489051 128:-0.563739 
-0 -0 -1 -0 -1 -1 -1 10:0.211679 128:-0.0424929 
-1 -1 -1 -1 -1 -1 -1 10:-0.313869 128:-0.399433 
-1 -1 -1 -1 -1 -1 -1 10:-0.153285 128:-0.416431 
-1 -1 -1 -1 -1 -1 -1 10:-0.532847 128:-0.410765 
-0 -1 -1 -1 -1 -1 -1 10:0.0656934 128:-0.116147 
-1 -1 -1 -1 -1 -1 -1 10:-0.313869 128:-0.620397 
-0 -1 -1 -1 -1 -1 -1 10:-0.0656934 128:-0.195467 
-1 -1 -1 -1 -1 -1 -1 10:-0.416058 128:-0.33711 
-1 -1 -1 -1 -1 -1 -1 10:-0.19708 128:-0.172805 
-1 -1 -1 -1 -1 -1 -1 10:-0.678832 128:-0.84136 
-1 -1 -1 -1 -1 -1 -1 10:-0.240876 128:-0.359773 
-0 -1 -1 -1 -1 -1 -1 10:0.109489 128:-0.155807 
-1 -1 -1 -1 -1 -1 -1 10:-0.29927 128:-0.17847 
-0 -1 -1 -1 -1 -1 -1 10:0.0364964 128:-0.116147 
-1 -1 -1 -1 -1 -1 -1 10:-0.153285 128:-0.235127 
-1 -1 -1 -1 -1 -1 -1 10:-0.313869 128:-0.269122 
-1 -1 -1 -1 -1 -1 -1 10:-0.79562 128:-0.677054 
-0 -1 -1 -0 -1 -1 -1 10:0.080292 128:-0.0254958 
-1 -1 -1 -1 -1 -1 -1 10:-0.416058 128:-0.512748 
-1 -1 -1 -1 -1 -1 -1 10:-0.459854 128:-0.110482 
-1 -1 -1 -1 -1 -1 -1 10:-0.664234 128:-0.688385 
-0 -1 -1 -0.4575447256463401 -1 -1 -1 10:0.0948905 128:-0.0651558 
-1 -1 -1 -1 -1 -1 -1 10:-0.0656934 128:-0.388102 
-0 -1 -1 -0 -1 -1 -1 10:-0.0948905 128:0.116147 
-1 -1 -1 -1 -1 -1 -1 10:-0.50365 128:-0.614731 
-1 -1 -1 -1 -1 -1 -1 10:-0.29927 128:-0.280453 
-1 -1 -1 -1 -1 -1 -1 10:-0.635036 128:-0.546742 
-1 -1 -1 -1 -1 -1 -1 10:-0.124088 128:-0.552408 
-1 -1 -1 -1 -1 -1 -1 10:-0.255474 128:-0.484419 
-1 -1 -1 -1 -1 -1 -1 10:-0.416058 128:-0.507082 
-1 -1 -1 -1 -1 -1 -1 10:-0.226277 128:-0.518414 
-1 -1 -1 -1 -1 -1 -1 10:-0.19708 128:-0.461756 
-0 -1 -1 -1 -1 -1 -1 10:-0.138686 128:-0.0538244 
-1 -1 -1 -1 -1 -1 -1 10:-0.386861 128:-0.21813 
-1 -1 -1 -1 -1 -1 -1 10:-0.635036 128:-0.569405 
-1 -1 -1 -1 -1 -1 -1 10:-0.0948905 128:-0.33711 
-0 -1 -1 -1 -1 -1 -1 10:-0.0510949 128:-0.155807 
-1 -1 -1 -1 -1 -1 -1 10:-0.357664 128:-0.450425 
-1 -1 -1 -1 -1 -1 -1 10:-0.386861 128:-0.597734 
-0 -0 -1 -0 -1 -1 -1 10:0.343066 128:-0.0538244 
-1 -1 -1 -1 -1 -1 -1 10:-0.124088 128:-0.348442 
-1 -1 -1 -1 -1 -1 -1 10:0.0218978 128:-0.427762 
-1 -1 -1 -1 -1 -1 -1 10:-0.313869 128:-0.161473 
-0 -1 -1 -0 -1 -1 -1 10:0.124088 128:-0.082153 
-1 -1 -1 -1 -1 -1 -1 10:-0.080292 128:-0.212465 
-1 -1 -1 -1 -1 -1 -1 10:-0.255474 128:-0.399433 
-0 -1 -1 -1 -1 -1 -1 10:-0.0364964 128:-0.155807 
-1 -1 -1 -1 -1 -1 -1 10:-0.591241 128:-0.575071 
-1 -1 -1 -1 -1 -1 -1 10:-0.459854 128:-0.223796 
-1 -1 -1 -1 -1 -1 -1 10:-0.635036 128:-0.393768 
-1 -1 -1 -1 -1 -1 -1 10:-0.50365 128:-0.546742 
-1 -1 -1 -1 -1 -1 -1 10:-0.489051 128:-0.291785 
-1 -1 -1 -1 -1 -1 -1 10:-0.386861 128:-0.450425 
-1 -1 -1 -1 -1 -1 -1 10:-0.226277 128:-0.473088 
-1 -1 -1 -1 -1 -1 -1 10:-0.211679 128:-0.303116 
-1 -1 -1 -1 -1 -1 -1 10:-0.445255 128:-0.348442 
-1 -1 -1 -1 -1 -1 -1 10:-0.284672 128:-0.308782 
-1 -1 -1 -1 -1 -1 -1 10:-0.50365 128:-0.575071 
-1 -1 -1 -1 -1 -1 -1 10:-0.591241 128:-0.8017 
-0 -1 -1 -1 -1 -1 -1 10:0.0656934 128:-0.13881 
-1 -1 -1 -1 -1 -1 -1 10:-0.226277 128:-0.620397 
-1 -1 -1 -1 -1 -1 -1 10:-0.474453 128:-0.535411 
-1 -1 -1 -1 -1 -1 -1 10:-0.386861 128:-0.490085 
-1 -1 -1 -1 -1 -1 -1 10:-0.226277 128:-0.597734 
-1 -1 -1 -1 -1 -1 -1 10:-0.416058 128:-0.371105 
-1 -1 -1 -1 -1 -1 -1 10:-0.416058 128:-0.518414 
-1 -1 -1 -1 -1 -1 -1 10:-0.357664 128:-0.450425 
-0 -1 -1 -1 -1 -1 -1 10:-0.0218978 128:-0.0254958 
-1 -1 -1 -1 -1 -1 -1 10:-0.372263 128:-0.365439 
-1 -1 -1 -1 -1 -1 -1 10:-0.430657 128:-0.535411 
-1 -1 -1 -1 -1 -1 -1 10:-0.386861 128:-0.501416 
-0 -1 -1 -0 -1 -1 -1 10:0.080292 128:0.0254958 
-1 -1 -1 -1 -1 -1 -1 10:-0.0218978 128:-0.274788 
-1 -1 -1 -1 -1 -1 -1 10:-0.357664 128:-0.563739 
-1 -1 -1 -1 -1 -1 -1 10:-0.19708 128:-0.229462 
-1 -1 -1 -1 -1 -1 -1 10:-0.153285 128:-0.314448 
-1 -1 -1 -1 -1 -1 -1 10:-0.328467 128:-0.626062 
-1 -1 -1 -1 -1 -1 -1 10:-0.109489 128:-0.416431 
-1 -1 -1 -1 -1 -1 -1 10:-0.576642 128:-0.620397 
-0 -0 -1 -0 -1 -1 -1 10:0.459854 128:0.0594901 
-0 -0 -1 -0 -1 -1 -1 10:0.19708 128:-0.0311615 
-1 -1 -1 -1 -1 -1 -1 10:-0.357664 128:-0.467422 
-1 -1 -1 -1 -1 -1 -1 10:-0.664234 128:-0.665722 
-1 -1 -1 -1 -1 -1 -1 10:-0.459854 128:-0.303116 
-1 -1 -1 -1 -1 -1 -1 10:-0.430657 128:-0.21813 
-0 -0 -1 -0 -1 -1 -1 10:0.153285 128:0.150142 
-1 -1 -1 -1 -1 -1 -1 10:-0.518248 128:-0.354108 
-1 -1 -1 -1 -1 -1 -1 10:-0.328467 128:-0.478754 
-1 -1 -1 -1 -1 -1 -1 10:-0.29927 128:-0.405099 
-1 -1 -1 -1 -1 -1 -1 10:-0.751825 128:-0.637394 
-0 -1 -1 -1 -1 -1 -1 10:-0.080292 128:-0.0254958 
-1 -1 -1 -1 -1 -1 -1 10:-0.270073 128:-0.325779 
-1 -1 -1 -1 -1 -1 -1 10:-0.518248 128:-0.167139 
-1 -1 -1 -1 -1 -1 -1 10:-0.518248 128:-0.68272 
